digraph Tree {
node [shape=box, style="filled, rounded", color="black", fontname="helvetica"] ;
edge [fontname="helvetica"] ;
0 [label=<VALOR_ARRECADADO &le; 136.21<br/>gini = 0.134<br/>samples = 3350<br/>value = [53, 3111, 186]<br/>class = sctrans>, fillcolor="#48e78b"] ;
1 [label=<ANO &le; 2013.5<br/>gini = 0.053<br/>samples = 1601<br/>value = [15, 1558, 28]<br/>class = sctrans>, fillcolor="#3ee684"] ;
0 -> 1 [labeldistance=2.5, labelangle=45, headlabel="True"] ;
2 [label=<VALOR_ARRECADADO &le; 128.785<br/>gini = 0.212<br/>samples = 103<br/>value = [8, 91, 4]<br/>class = sctrans>, fillcolor="#52e891"] ;
1 -> 2 ;
3 [label=<VALOR_ARRECADADO &le; -297.885<br/>gini = 0.197<br/>samples = 102<br/>value = [8, 91, 3]<br/>class = sctrans>, fillcolor="#50e890"] ;
2 -> 3 ;
4 [label=<gini = 0.0<br/>samples = 1<br/>value = [1, 0, 0]<br/>class = prefeitura municipal>, fillcolor="#e58139"] ;
3 -> 4 ;
5 [label=<VALOR_ARRECADADO &le; 53.95<br/>gini = 0.183<br/>samples = 101<br/>value = [7, 91, 3]<br/>class = sctrans>, fillcolor="#4ee88e"] ;
3 -> 5 ;
6 [label=<VALOR_ARRECADADO &le; 37.145<br/>gini = 0.226<br/>samples = 54<br/>value = [7, 47, 0]<br/>class = sctrans>, fillcolor="#56e994"] ;
5 -> 6 ;
7 [label=<VALOR_ARRECADADO &le; 7.27<br/>gini = 0.15<br/>samples = 49<br/>value = [4, 45, 0]<br/>class = sctrans>, fillcolor="#4be78c"] ;
6 -> 7 ;
8 [label=<VALOR_ARRECADADO &le; 0.045<br/>gini = 0.069<br/>samples = 28<br/>value = [1, 27, 0]<br/>class = sctrans>, fillcolor="#40e686"] ;
7 -> 8 ;
9 [label=<VALOR_ARRECADADO &le; 0.025<br/>gini = 0.32<br/>samples = 5<br/>value = [1, 4, 0]<br/>class = sctrans>, fillcolor="#6aeca0"] ;
8 -> 9 ;
10 [label=<gini = 0.0<br/>samples = 4<br/>value = [0, 4, 0]<br/>class = sctrans>, fillcolor="#39e581"] ;
9 -> 10 ;
11 [label=<gini = 0.0<br/>samples = 1<br/>value = [1, 0, 0]<br/>class = prefeitura municipal>, fillcolor="#e58139"] ;
9 -> 11 ;
12 [label=<gini = 0.0<br/>samples = 23<br/>value = [0, 23, 0]<br/>class = sctrans>, fillcolor="#39e581"] ;
8 -> 12 ;
13 [label=<VALOR_ARRECADADO &le; 8.915<br/>gini = 0.245<br/>samples = 21<br/>value = [3, 18, 0]<br/>class = sctrans>, fillcolor="#5ae996"] ;
7 -> 13 ;
14 [label=<gini = 0.0<br/>samples = 1<br/>value = [1, 0, 0]<br/>class = prefeitura municipal>, fillcolor="#e58139"] ;
13 -> 14 ;
15 [label=<VALOR_ARRECADADO &le; 14.37<br/>gini = 0.18<br/>samples = 20<br/>value = [2, 18, 0]<br/>class = sctrans>, fillcolor="#4fe88f"] ;
13 -> 15 ;
16 [label=<gini = 0.0<br/>samples = 6<br/>value = [0, 6, 0]<br/>class = sctrans>, fillcolor="#39e581"] ;
15 -> 16 ;
17 [label=<VALOR_ARRECADADO &le; 16.235<br/>gini = 0.245<br/>samples = 14<br/>value = [2, 12, 0]<br/>class = sctrans>, fillcolor="#5ae996"] ;
15 -> 17 ;
18 [label=<gini = 0.0<br/>samples = 1<br/>value = [1, 0, 0]<br/>class = prefeitura municipal>, fillcolor="#e58139"] ;
17 -> 18 ;
19 [label=<VALOR_ARRECADADO &le; 23.71<br/>gini = 0.142<br/>samples = 13<br/>value = [1, 12, 0]<br/>class = sctrans>, fillcolor="#49e78c"] ;
17 -> 19 ;
20 [label=<gini = 0.0<br/>samples = 6<br/>value = [0, 6, 0]<br/>class = sctrans>, fillcolor="#39e581"] ;
19 -> 20 ;
21 [label=<VALOR_ARRECADADO &le; 26.78<br/>gini = 0.245<br/>samples = 7<br/>value = [1, 6, 0]<br/>class = sctrans>, fillcolor="#5ae996"] ;
19 -> 21 ;
22 [label=<gini = 0.0<br/>samples = 1<br/>value = [1, 0, 0]<br/>class = prefeitura municipal>, fillcolor="#e58139"] ;
21 -> 22 ;
23 [label=<gini = 0.0<br/>samples = 6<br/>value = [0, 6, 0]<br/>class = sctrans>, fillcolor="#39e581"] ;
21 -> 23 ;
24 [label=<VALOR_ARRECADADO &le; 46.84<br/>gini = 0.48<br/>samples = 5<br/>value = [3, 2, 0]<br/>class = prefeitura municipal>, fillcolor="#f6d5bd"] ;
6 -> 24 ;
25 [label=<gini = 0.0<br/>samples = 2<br/>value = [2, 0, 0]<br/>class = prefeitura municipal>, fillcolor="#e58139"] ;
24 -> 25 ;
26 [label=<VALOR_ARRECADADO &le; 51.98<br/>gini = 0.444<br/>samples = 3<br/>value = [1, 2, 0]<br/>class = sctrans>, fillcolor="#9cf2c0"] ;
24 -> 26 ;
27 [label=<gini = 0.0<br/>samples = 2<br/>value = [0, 2, 0]<br/>class = sctrans>, fillcolor="#39e581"] ;
26 -> 27 ;
28 [label=<gini = 0.0<br/>samples = 1<br/>value = [1, 0, 0]<br/>class = prefeitura municipal>, fillcolor="#e58139"] ;
26 -> 28 ;
29 [label=<VALOR_ARRECADADO &le; 87.92<br/>gini = 0.12<br/>samples = 47<br/>value = [0, 44, 3]<br/>class = sctrans>, fillcolor="#46e78a"] ;
5 -> 29 ;
30 [label=<VALOR_ARRECADADO &le; 60.5<br/>gini = 0.064<br/>samples = 30<br/>value = [0, 29, 1]<br/>class = sctrans>, fillcolor="#40e685"] ;
29 -> 30 ;
31 [label=<VALOR_ARRECADADO &le; 59.885<br/>gini = 0.219<br/>samples = 8<br/>value = [0, 7, 1]<br/>class = sctrans>, fillcolor="#55e993"] ;
30 -> 31 ;
32 [label=<gini = 0.0<br/>samples = 7<br/>value = [0, 7, 0]<br/>class = sctrans>, fillcolor="#39e581"] ;
31 -> 32 ;
33 [label=<gini = 0.0<br/>samples = 1<br/>value = [0, 0, 1]<br/>class = instituto de previdencia e assistencia social>, fillcolor="#8139e5"] ;
31 -> 33 ;
34 [label=<gini = 0.0<br/>samples = 22<br/>value = [0, 22, 0]<br/>class = sctrans>, fillcolor="#39e581"] ;
30 -> 34 ;
35 [label=<VALOR_ARRECADADO &le; 104.11<br/>gini = 0.208<br/>samples = 17<br/>value = [0, 15, 2]<br/>class = sctrans>, fillcolor="#53e892"] ;
29 -> 35 ;
36 [label=<VALOR_ARRECADADO &le; 101.33<br/>gini = 0.408<br/>samples = 7<br/>value = [0, 5, 2]<br/>class = sctrans>, fillcolor="#88efb3"] ;
35 -> 36 ;
37 [label=<VALOR_ARRECADADO &le; 90.165<br/>gini = 0.278<br/>samples = 6<br/>value = [0, 5, 1]<br/>class = sctrans>, fillcolor="#61ea9a"] ;
36 -> 37 ;
38 [label=<gini = 0.444<br/>samples = 3<br/>value = [0, 2, 1]<br/>class = sctrans>, fillcolor="#9cf2c0"] ;
37 -> 38 ;
39 [label=<gini = 0.0<br/>samples = 3<br/>value = [0, 3, 0]<br/>class = sctrans>, fillcolor="#39e581"] ;
37 -> 39 ;
40 [label=<gini = 0.0<br/>samples = 1<br/>value = [0, 0, 1]<br/>class = instituto de previdencia e assistencia social>, fillcolor="#8139e5"] ;
36 -> 40 ;
41 [label=<gini = 0.0<br/>samples = 10<br/>value = [0, 10, 0]<br/>class = sctrans>, fillcolor="#39e581"] ;
35 -> 41 ;
42 [label=<gini = 0.0<br/>samples = 1<br/>value = [0, 0, 1]<br/>class = instituto de previdencia e assistencia social>, fillcolor="#8139e5"] ;
2 -> 42 ;
43 [label=<VALOR_ARRECADADO &le; 79.77<br/>gini = 0.041<br/>samples = 1498<br/>value = [7, 1467, 24]<br/>class = sctrans>, fillcolor="#3de684"] ;
1 -> 43 ;
44 [label=<VALOR_ARRECADADO &le; 9.05<br/>gini = 0.028<br/>samples = 1141<br/>value = [7, 1125, 9]<br/>class = sctrans>, fillcolor="#3ce583"] ;
43 -> 44 ;
45 [label=<VALOR_ARRECADADO &le; 0.005<br/>gini = 0.011<br/>samples = 352<br/>value = [2, 350, 0]<br/>class = sctrans>, fillcolor="#3ae582"] ;
44 -> 45 ;
46 [label=<VALOR_ARRECADADO &le; -0.465<br/>gini = 0.08<br/>samples = 24<br/>value = [1, 23, 0]<br/>class = sctrans>, fillcolor="#42e686"] ;
45 -> 46 ;
47 [label=<gini = 0.0<br/>samples = 15<br/>value = [0, 15, 0]<br/>class = sctrans>, fillcolor="#39e581"] ;
46 -> 47 ;
48 [label=<ANO &le; 2016.5<br/>gini = 0.198<br/>samples = 9<br/>value = [1, 8, 0]<br/>class = sctrans>, fillcolor="#52e891"] ;
46 -> 48 ;
49 [label=<gini = 0.0<br/>samples = 6<br/>value = [0, 6, 0]<br/>class = sctrans>, fillcolor="#39e581"] ;
48 -> 49 ;
50 [label=<ANO &le; 2018.5<br/>gini = 0.444<br/>samples = 3<br/>value = [1, 2, 0]<br/>class = sctrans>, fillcolor="#9cf2c0"] ;
48 -> 50 ;
51 [label=<gini = 0.0<br/>samples = 1<br/>value = [1, 0, 0]<br/>class = prefeitura municipal>, fillcolor="#e58139"] ;
50 -> 51 ;
52 [label=<gini = 0.0<br/>samples = 2<br/>value = [0, 2, 0]<br/>class = sctrans>, fillcolor="#39e581"] ;
50 -> 52 ;
53 [label=<VALOR_ARRECADADO &le; 0.705<br/>gini = 0.006<br/>samples = 328<br/>value = [1, 327, 0]<br/>class = sctrans>, fillcolor="#3ae581"] ;
45 -> 53 ;
54 [label=<VALOR_ARRECADADO &le; 0.685<br/>gini = 0.017<br/>samples = 119<br/>value = [1, 118, 0]<br/>class = sctrans>, fillcolor="#3be582"] ;
53 -> 54 ;
55 [label=<gini = 0.0<br/>samples = 118<br/>value = [0, 118, 0]<br/>class = sctrans>, fillcolor="#39e581"] ;
54 -> 55 ;
56 [label=<gini = 0.0<br/>samples = 1<br/>value = [1, 0, 0]<br/>class = prefeitura municipal>, fillcolor="#e58139"] ;
54 -> 56 ;
57 [label=<gini = 0.0<br/>samples = 209<br/>value = [0, 209, 0]<br/>class = sctrans>, fillcolor="#39e581"] ;
53 -> 57 ;
58 [label=<VALOR_ARRECADADO &le; 9.115<br/>gini = 0.035<br/>samples = 789<br/>value = [5, 775, 9]<br/>class = sctrans>, fillcolor="#3de583"] ;
44 -> 58 ;
59 [label=<gini = 0.0<br/>samples = 1<br/>value = [0, 0, 1]<br/>class = instituto de previdencia e assistencia social>, fillcolor="#8139e5"] ;
58 -> 59 ;
60 [label=<VALOR_ARRECADADO &le; 10.59<br/>gini = 0.033<br/>samples = 788<br/>value = [5, 775, 8]<br/>class = sctrans>, fillcolor="#3ce583"] ;
58 -> 60 ;
61 [label=<VALOR_ARRECADADO &le; 10.33<br/>gini = 0.089<br/>samples = 43<br/>value = [2, 41, 0]<br/>class = sctrans>, fillcolor="#43e687"] ;
60 -> 61 ;
62 [label=<gini = 0.0<br/>samples = 36<br/>value = [0, 36, 0]<br/>class = sctrans>, fillcolor="#39e581"] ;
61 -> 62 ;
63 [label=<ANO &le; 2019.0<br/>gini = 0.408<br/>samples = 7<br/>value = [2, 5, 0]<br/>class = sctrans>, fillcolor="#88efb3"] ;
61 -> 63 ;
64 [label=<VALOR_ARRECADADO &le; 10.555<br/>gini = 0.278<br/>samples = 6<br/>value = [1, 5, 0]<br/>class = sctrans>, fillcolor="#61ea9a"] ;
63 -> 64 ;
65 [label=<gini = 0.0<br/>samples = 4<br/>value = [0, 4, 0]<br/>class = sctrans>, fillcolor="#39e581"] ;
64 -> 65 ;
66 [label=<ANO &le; 2016.0<br/>gini = 0.5<br/>samples = 2<br/>value = [1, 1, 0]<br/>class = prefeitura municipal>, fillcolor="#ffffff"] ;
64 -> 66 ;
67 [label=<gini = 0.0<br/>samples = 1<br/>value = [1, 0, 0]<br/>class = prefeitura municipal>, fillcolor="#e58139"] ;
66 -> 67 ;
68 [label=<gini = 0.0<br/>samples = 1<br/>value = [0, 1, 0]<br/>class = sctrans>, fillcolor="#39e581"] ;
66 -> 68 ;
69 [label=<gini = 0.0<br/>samples = 1<br/>value = [1, 0, 0]<br/>class = prefeitura municipal>, fillcolor="#e58139"] ;
63 -> 69 ;
70 [label=<VALOR_ARRECADADO &le; 60.02<br/>gini = 0.029<br/>samples = 745<br/>value = [3, 734, 8]<br/>class = sctrans>, fillcolor="#3ce583"] ;
60 -> 70 ;
71 [label=<VALOR_ARRECADADO &le; 58.875<br/>gini = 0.036<br/>samples = 600<br/>value = [3, 589, 8]<br/>class = sctrans>, fillcolor="#3de583"] ;
70 -> 71 ;
72 [label=<VALOR_ARRECADADO &le; 11.735<br/>gini = 0.031<br/>samples = 569<br/>value = [3, 560, 6]<br/>class = sctrans>, fillcolor="#3ce583"] ;
71 -> 72 ;
73 [label=<VALOR_ARRECADADO &le; 11.67<br/>gini = 0.095<br/>samples = 20<br/>value = [0, 19, 1]<br/>class = sctrans>, fillcolor="#43e688"] ;
72 -> 73 ;
74 [label=<gini = 0.0<br/>samples = 19<br/>value = [0, 19, 0]<br/>class = sctrans>, fillcolor="#39e581"] ;
73 -> 74 ;
75 [label=<gini = 0.0<br/>samples = 1<br/>value = [0, 0, 1]<br/>class = instituto de previdencia e assistencia social>, fillcolor="#8139e5"] ;
73 -> 75 ;
76 [label=<VALOR_ARRECADADO &le; 20.76<br/>gini = 0.029<br/>samples = 549<br/>value = [3, 541, 5]<br/>class = sctrans>, fillcolor="#3ce583"] ;
72 -> 76 ;
77 [label=<gini = 0.0<br/>samples = 129<br/>value = [0, 129, 0]<br/>class = sctrans>, fillcolor="#39e581"] ;
76 -> 77 ;
78 [label=<VALOR_ARRECADADO &le; 20.88<br/>gini = 0.038<br/>samples = 420<br/>value = [3, 412, 5]<br/>class = sctrans>, fillcolor="#3de683"] ;
76 -> 78 ;
79 [label=<gini = 0.0<br/>samples = 1<br/>value = [0, 0, 1]<br/>class = instituto de previdencia e assistencia social>, fillcolor="#8139e5"] ;
78 -> 79 ;
80 [label=<VALOR_ARRECADADO &le; 37.41<br/>gini = 0.033<br/>samples = 419<br/>value = [3, 412, 4]<br/>class = sctrans>, fillcolor="#3ce583"] ;
78 -> 80 ;
81 [label=<VALOR_ARRECADADO &le; 37.08<br/>gini = 0.054<br/>samples = 182<br/>value = [3, 177, 2]<br/>class = sctrans>, fillcolor="#3fe685"] ;
80 -> 81 ;
82 [label=<VALOR_ARRECADADO &le; 36.49<br/>gini = 0.033<br/>samples = 179<br/>value = [1, 176, 2]<br/>class = sctrans>, fillcolor="#3ce583"] ;
81 -> 82 ;
83 [label=<ANO &le; 2014.5<br/>gini = 0.023<br/>samples = 173<br/>value = [0, 171, 2]<br/>class = sctrans>, fillcolor="#3be582"] ;
82 -> 83 ;
84 [label=<VALOR_ARRECADADO &le; 30.49<br/>gini = 0.08<br/>samples = 24<br/>value = [0, 23, 1]<br/>class = sctrans>, fillcolor="#42e686"] ;
83 -> 84 ;
85 [label=<VALOR_ARRECADADO &le; 29.25<br/>gini = 0.165<br/>samples = 11<br/>value = [0, 10, 1]<br/>class = sctrans>, fillcolor="#4de88e"] ;
84 -> 85 ;
86 [label=<gini = 0.0<br/>samples = 9<br/>value = [0, 9, 0]<br/>class = sctrans>, fillcolor="#39e581"] ;
85 -> 86 ;
87 [label=<gini = 0.5<br/>samples = 2<br/>value = [0, 1, 1]<br/>class = sctrans>, fillcolor="#ffffff"] ;
85 -> 87 ;
88 [label=<gini = 0.0<br/>samples = 13<br/>value = [0, 13, 0]<br/>class = sctrans>, fillcolor="#39e581"] ;
84 -> 88 ;
89 [label=<VALOR_ARRECADADO &le; 26.665<br/>gini = 0.013<br/>samples = 149<br/>value = [0, 148, 1]<br/>class = sctrans>, fillcolor="#3ae582"] ;
83 -> 89 ;
90 [label=<VALOR_ARRECADADO &le; 26.52<br/>gini = 0.034<br/>samples = 57<br/>value = [0, 56, 1]<br/>class = sctrans>, fillcolor="#3de583"] ;
89 -> 90 ;
91 [label=<gini = 0.0<br/>samples = 56<br/>value = [0, 56, 0]<br/>class = sctrans>, fillcolor="#39e581"] ;
90 -> 91 ;
92 [label=<gini = 0.0<br/>samples = 1<br/>value = [0, 0, 1]<br/>class = instituto de previdencia e assistencia social>, fillcolor="#8139e5"] ;
90 -> 92 ;
93 [label=<gini = 0.0<br/>samples = 92<br/>value = [0, 92, 0]<br/>class = sctrans>, fillcolor="#39e581"] ;
89 -> 93 ;
94 [label=<VALOR_ARRECADADO &le; 36.64<br/>gini = 0.278<br/>samples = 6<br/>value = [1, 5, 0]<br/>class = sctrans>, fillcolor="#61ea9a"] ;
82 -> 94 ;
95 [label=<gini = 0.0<br/>samples = 1<br/>value = [1, 0, 0]<br/>class = prefeitura municipal>, fillcolor="#e58139"] ;
94 -> 95 ;
96 [label=<gini = 0.0<br/>samples = 5<br/>value = [0, 5, 0]<br/>class = sctrans>, fillcolor="#39e581"] ;
94 -> 96 ;
97 [label=<ANO &le; 2016.5<br/>gini = 0.444<br/>samples = 3<br/>value = [2, 1, 0]<br/>class = prefeitura municipal>, fillcolor="#f2c09c"] ;
81 -> 97 ;
98 [label=<gini = 0.0<br/>samples = 1<br/>value = [0, 1, 0]<br/>class = sctrans>, fillcolor="#39e581"] ;
97 -> 98 ;
99 [label=<gini = 0.0<br/>samples = 2<br/>value = [2, 0, 0]<br/>class = prefeitura municipal>, fillcolor="#e58139"] ;
97 -> 99 ;
100 [label=<ANO &le; 2017.5<br/>gini = 0.017<br/>samples = 237<br/>value = [0, 235, 2]<br/>class = sctrans>, fillcolor="#3be582"] ;
80 -> 100 ;
101 [label=<VALOR_ARRECADADO &le; 52.89<br/>gini = 0.027<br/>samples = 144<br/>value = [0, 142, 2]<br/>class = sctrans>, fillcolor="#3ce583"] ;
100 -> 101 ;
102 [label=<ANO &le; 2016.5<br/>gini = 0.016<br/>samples = 124<br/>value = [0, 123, 1]<br/>class = sctrans>, fillcolor="#3be582"] ;
101 -> 102 ;
103 [label=<gini = 0.0<br/>samples = 110<br/>value = [0, 110, 0]<br/>class = sctrans>, fillcolor="#39e581"] ;
102 -> 103 ;
104 [label=<VALOR_ARRECADADO &le; 40.79<br/>gini = 0.133<br/>samples = 14<br/>value = [0, 13, 1]<br/>class = sctrans>, fillcolor="#48e78b"] ;
102 -> 104 ;
105 [label=<gini = 0.5<br/>samples = 2<br/>value = [0, 1, 1]<br/>class = sctrans>, fillcolor="#ffffff"] ;
104 -> 105 ;
106 [label=<gini = 0.0<br/>samples = 12<br/>value = [0, 12, 0]<br/>class = sctrans>, fillcolor="#39e581"] ;
104 -> 106 ;
107 [label=<VALOR_ARRECADADO &le; 53.03<br/>gini = 0.095<br/>samples = 20<br/>value = [0, 19, 1]<br/>class = sctrans>, fillcolor="#43e688"] ;
101 -> 107 ;
108 [label=<gini = 0.0<br/>samples = 1<br/>value = [0, 0, 1]<br/>class = instituto de previdencia e assistencia social>, fillcolor="#8139e5"] ;
107 -> 108 ;
109 [label=<gini = 0.0<br/>samples = 19<br/>value = [0, 19, 0]<br/>class = sctrans>, fillcolor="#39e581"] ;
107 -> 109 ;
110 [label=<gini = 0.0<br/>samples = 93<br/>value = [0, 93, 0]<br/>class = sctrans>, fillcolor="#39e581"] ;
100 -> 110 ;
111 [label=<VALOR_ARRECADADO &le; 58.945<br/>gini = 0.121<br/>samples = 31<br/>value = [0, 29, 2]<br/>class = sctrans>, fillcolor="#47e78a"] ;
71 -> 111 ;
112 [label=<gini = 0.0<br/>samples = 1<br/>value = [0, 0, 1]<br/>class = instituto de previdencia e assistencia social>, fillcolor="#8139e5"] ;
111 -> 112 ;
113 [label=<ANO &le; 2015.5<br/>gini = 0.064<br/>samples = 30<br/>value = [0, 29, 1]<br/>class = sctrans>, fillcolor="#40e685"] ;
111 -> 113 ;
114 [label=<VALOR_ARRECADADO &le; 59.9<br/>gini = 0.18<br/>samples = 10<br/>value = [0, 9, 1]<br/>class = sctrans>, fillcolor="#4fe88f"] ;
113 -> 114 ;
115 [label=<gini = 0.0<br/>samples = 3<br/>value = [0, 3, 0]<br/>class = sctrans>, fillcolor="#39e581"] ;
114 -> 115 ;
116 [label=<ANO &le; 2014.5<br/>gini = 0.245<br/>samples = 7<br/>value = [0, 6, 1]<br/>class = sctrans>, fillcolor="#5ae996"] ;
114 -> 116 ;
117 [label=<gini = 0.0<br/>samples = 2<br/>value = [0, 2, 0]<br/>class = sctrans>, fillcolor="#39e581"] ;
116 -> 117 ;
118 [label=<gini = 0.32<br/>samples = 5<br/>value = [0, 4, 1]<br/>class = sctrans>, fillcolor="#6aeca0"] ;
116 -> 118 ;
119 [label=<gini = 0.0<br/>samples = 20<br/>value = [0, 20, 0]<br/>class = sctrans>, fillcolor="#39e581"] ;
113 -> 119 ;
120 [label=<gini = 0.0<br/>samples = 145<br/>value = [0, 145, 0]<br/>class = sctrans>, fillcolor="#39e581"] ;
70 -> 120 ;
121 [label=<VALOR_ARRECADADO &le; 80.115<br/>gini = 0.081<br/>samples = 357<br/>value = [0, 342, 15]<br/>class = sctrans>, fillcolor="#42e687"] ;
43 -> 121 ;
122 [label=<ANO &le; 2016.5<br/>gini = 0.36<br/>samples = 17<br/>value = [0, 13, 4]<br/>class = sctrans>, fillcolor="#76eda8"] ;
121 -> 122 ;
123 [label=<ANO &le; 2014.5<br/>gini = 0.5<br/>samples = 8<br/>value = [0, 4, 4]<br/>class = sctrans>, fillcolor="#ffffff"] ;
122 -> 123 ;
124 [label=<gini = 0.375<br/>samples = 4<br/>value = [0, 3, 1]<br/>class = sctrans>, fillcolor="#7beeab"] ;
123 -> 124 ;
125 [label=<ANO &le; 2015.5<br/>gini = 0.375<br/>samples = 4<br/>value = [0, 1, 3]<br/>class = instituto de previdencia e assistencia social>, fillcolor="#ab7bee"] ;
123 -> 125 ;
126 [label=<gini = 0.444<br/>samples = 3<br/>value = [0, 1, 2]<br/>class = instituto de previdencia e assistencia social>, fillcolor="#c09cf2"] ;
125 -> 126 ;
127 [label=<gini = 0.0<br/>samples = 1<br/>value = [0, 0, 1]<br/>class = instituto de previdencia e assistencia social>, fillcolor="#8139e5"] ;
125 -> 127 ;
128 [label=<gini = 0.0<br/>samples = 9<br/>value = [0, 9, 0]<br/>class = sctrans>, fillcolor="#39e581"] ;
122 -> 128 ;
129 [label=<ANO &le; 2015.5<br/>gini = 0.063<br/>samples = 340<br/>value = [0, 329, 11]<br/>class = sctrans>, fillcolor="#40e685"] ;
121 -> 129 ;
130 [label=<VALOR_ARRECADADO &le; 105.5<br/>gini = 0.105<br/>samples = 108<br/>value = [0, 102, 6]<br/>class = sctrans>, fillcolor="#45e788"] ;
129 -> 130 ;
131 [label=<VALOR_ARRECADADO &le; 91.12<br/>gini = 0.033<br/>samples = 59<br/>value = [0, 58, 1]<br/>class = sctrans>, fillcolor="#3ce583"] ;
130 -> 131 ;
132 [label=<VALOR_ARRECADADO &le; 90.5<br/>gini = 0.083<br/>samples = 23<br/>value = [0, 22, 1]<br/>class = sctrans>, fillcolor="#42e687"] ;
131 -> 132 ;
133 [label=<gini = 0.0<br/>samples = 22<br/>value = [0, 22, 0]<br/>class = sctrans>, fillcolor="#39e581"] ;
132 -> 133 ;
134 [label=<gini = 0.0<br/>samples = 1<br/>value = [0, 0, 1]<br/>class = instituto de previdencia e assistencia social>, fillcolor="#8139e5"] ;
132 -> 134 ;
135 [label=<gini = 0.0<br/>samples = 36<br/>value = [0, 36, 0]<br/>class = sctrans>, fillcolor="#39e581"] ;
131 -> 135 ;
136 [label=<VALOR_ARRECADADO &le; 106.9<br/>gini = 0.183<br/>samples = 49<br/>value = [0, 44, 5]<br/>class = sctrans>, fillcolor="#50e88f"] ;
130 -> 136 ;
137 [label=<gini = 0.0<br/>samples = 1<br/>value = [0, 0, 1]<br/>class = instituto de previdencia e assistencia social>, fillcolor="#8139e5"] ;
136 -> 137 ;
138 [label=<ANO &le; 2014.5<br/>gini = 0.153<br/>samples = 48<br/>value = [0, 44, 4]<br/>class = sctrans>, fillcolor="#4be78c"] ;
136 -> 138 ;
139 [label=<gini = 0.0<br/>samples = 21<br/>value = [0, 21, 0]<br/>class = sctrans>, fillcolor="#39e581"] ;
138 -> 139 ;
140 [label=<VALOR_ARRECADADO &le; 124.775<br/>gini = 0.252<br/>samples = 27<br/>value = [0, 23, 4]<br/>class = sctrans>, fillcolor="#5bea97"] ;
138 -> 140 ;
141 [label=<VALOR_ARRECADADO &le; 124.52<br/>gini = 0.337<br/>samples = 14<br/>value = [0, 11, 3]<br/>class = sctrans>, fillcolor="#6feca3"] ;
140 -> 141 ;
142 [label=<VALOR_ARRECADADO &le; 111.945<br/>gini = 0.26<br/>samples = 13<br/>value = [0, 11, 2]<br/>class = sctrans>, fillcolor="#5dea98"] ;
141 -> 142 ;
143 [label=<gini = 0.0<br/>samples = 4<br/>value = [0, 4, 0]<br/>class = sctrans>, fillcolor="#39e581"] ;
142 -> 143 ;
144 [label=<VALOR_ARRECADADO &le; 113.315<br/>gini = 0.346<br/>samples = 9<br/>value = [0, 7, 2]<br/>class = sctrans>, fillcolor="#72eca5"] ;
142 -> 144 ;
145 [label=<gini = 0.0<br/>samples = 1<br/>value = [0, 0, 1]<br/>class = instituto de previdencia e assistencia social>, fillcolor="#8139e5"] ;
144 -> 145 ;
146 [label=<VALOR_ARRECADADO &le; 120.07<br/>gini = 0.219<br/>samples = 8<br/>value = [0, 7, 1]<br/>class = sctrans>, fillcolor="#55e993"] ;
144 -> 146 ;
147 [label=<VALOR_ARRECADADO &le; 119.405<br/>gini = 0.375<br/>samples = 4<br/>value = [0, 3, 1]<br/>class = sctrans>, fillcolor="#7beeab"] ;
146 -> 147 ;
148 [label=<gini = 0.0<br/>samples = 2<br/>value = [0, 2, 0]<br/>class = sctrans>, fillcolor="#39e581"] ;
147 -> 148 ;
149 [label=<gini = 0.5<br/>samples = 2<br/>value = [0, 1, 1]<br/>class = sctrans>, fillcolor="#ffffff"] ;
147 -> 149 ;
150 [label=<gini = 0.0<br/>samples = 4<br/>value = [0, 4, 0]<br/>class = sctrans>, fillcolor="#39e581"] ;
146 -> 150 ;
151 [label=<gini = 0.0<br/>samples = 1<br/>value = [0, 0, 1]<br/>class = instituto de previdencia e assistencia social>, fillcolor="#8139e5"] ;
141 -> 151 ;
152 [label=<VALOR_ARRECADADO &le; 131.635<br/>gini = 0.142<br/>samples = 13<br/>value = [0, 12, 1]<br/>class = sctrans>, fillcolor="#49e78c"] ;
140 -> 152 ;
153 [label=<gini = 0.0<br/>samples = 5<br/>value = [0, 5, 0]<br/>class = sctrans>, fillcolor="#39e581"] ;
152 -> 153 ;
154 [label=<VALOR_ARRECADADO &le; 133.25<br/>gini = 0.219<br/>samples = 8<br/>value = [0, 7, 1]<br/>class = sctrans>, fillcolor="#55e993"] ;
152 -> 154 ;
155 [label=<gini = 0.375<br/>samples = 4<br/>value = [0, 3, 1]<br/>class = sctrans>, fillcolor="#7beeab"] ;
154 -> 155 ;
156 [label=<gini = 0.0<br/>samples = 4<br/>value = [0, 4, 0]<br/>class = sctrans>, fillcolor="#39e581"] ;
154 -> 156 ;
157 [label=<ANO &le; 2019.5<br/>gini = 0.042<br/>samples = 232<br/>value = [0, 227, 5]<br/>class = sctrans>, fillcolor="#3de684"] ;
129 -> 157 ;
158 [label=<VALOR_ARRECADADO &le; 109.445<br/>gini = 0.012<br/>samples = 166<br/>value = [0, 165, 1]<br/>class = sctrans>, fillcolor="#3ae582"] ;
157 -> 158 ;
159 [label=<gini = 0.0<br/>samples = 102<br/>value = [0, 102, 0]<br/>class = sctrans>, fillcolor="#39e581"] ;
158 -> 159 ;
160 [label=<VALOR_ARRECADADO &le; 110.15<br/>gini = 0.031<br/>samples = 64<br/>value = [0, 63, 1]<br/>class = sctrans>, fillcolor="#3ce583"] ;
158 -> 160 ;
161 [label=<gini = 0.0<br/>samples = 1<br/>value = [0, 0, 1]<br/>class = instituto de previdencia e assistencia social>, fillcolor="#8139e5"] ;
160 -> 161 ;
162 [label=<gini = 0.0<br/>samples = 63<br/>value = [0, 63, 0]<br/>class = sctrans>, fillcolor="#39e581"] ;
160 -> 162 ;
163 [label=<VALOR_ARRECADADO &le; 100.475<br/>gini = 0.114<br/>samples = 66<br/>value = [0, 62, 4]<br/>class = sctrans>, fillcolor="#46e789"] ;
157 -> 163 ;
164 [label=<VALOR_ARRECADADO &le; 99.56<br/>gini = 0.204<br/>samples = 26<br/>value = [0, 23, 3]<br/>class = sctrans>, fillcolor="#53e891"] ;
163 -> 164 ;
165 [label=<VALOR_ARRECADADO &le; 83.8<br/>gini = 0.08<br/>samples = 24<br/>value = [0, 23, 1]<br/>class = sctrans>, fillcolor="#42e686"] ;
164 -> 165 ;
166 [label=<VALOR_ARRECADADO &le; 83.54<br/>gini = 0.278<br/>samples = 6<br/>value = [0, 5, 1]<br/>class = sctrans>, fillcolor="#61ea9a"] ;
165 -> 166 ;
167 [label=<gini = 0.0<br/>samples = 5<br/>value = [0, 5, 0]<br/>class = sctrans>, fillcolor="#39e581"] ;
166 -> 167 ;
168 [label=<gini = 0.0<br/>samples = 1<br/>value = [0, 0, 1]<br/>class = instituto de previdencia e assistencia social>, fillcolor="#8139e5"] ;
166 -> 168 ;
169 [label=<gini = 0.0<br/>samples = 18<br/>value = [0, 18, 0]<br/>class = sctrans>, fillcolor="#39e581"] ;
165 -> 169 ;
170 [label=<gini = 0.0<br/>samples = 2<br/>value = [0, 0, 2]<br/>class = instituto de previdencia e assistencia social>, fillcolor="#8139e5"] ;
164 -> 170 ;
171 [label=<VALOR_ARRECADADO &le; 121.815<br/>gini = 0.049<br/>samples = 40<br/>value = [0, 39, 1]<br/>class = sctrans>, fillcolor="#3ee684"] ;
163 -> 171 ;
172 [label=<gini = 0.0<br/>samples = 29<br/>value = [0, 29, 0]<br/>class = sctrans>, fillcolor="#39e581"] ;
171 -> 172 ;
173 [label=<VALOR_ARRECADADO &le; 123.655<br/>gini = 0.165<br/>samples = 11<br/>value = [0, 10, 1]<br/>class = sctrans>, fillcolor="#4de88e"] ;
171 -> 173 ;
174 [label=<gini = 0.0<br/>samples = 1<br/>value = [0, 0, 1]<br/>class = instituto de previdencia e assistencia social>, fillcolor="#8139e5"] ;
173 -> 174 ;
175 [label=<gini = 0.0<br/>samples = 10<br/>value = [0, 10, 0]<br/>class = sctrans>, fillcolor="#39e581"] ;
173 -> 175 ;
176 [label=<VALOR_ARRECADADO &le; 3859.045<br/>gini = 0.203<br/>samples = 1749<br/>value = [38, 1553, 158]<br/>class = sctrans>, fillcolor="#51e891"] ;
0 -> 176 [labeldistance=2.5, labelangle=-45, headlabel="False"] ;
177 [label=<VALOR_ARRECADADO &le; 136.435<br/>gini = 0.202<br/>samples = 1748<br/>value = [37, 1553, 158]<br/>class = sctrans>, fillcolor="#51e890"] ;
176 -> 177 ;
178 [label=<gini = 0.0<br/>samples = 1<br/>value = [0, 0, 1]<br/>class = instituto de previdencia e assistencia social>, fillcolor="#8139e5"] ;
177 -> 178 ;
179 [label=<ANO &le; 2013.5<br/>gini = 0.201<br/>samples = 1747<br/>value = [37, 1553, 157]<br/>class = sctrans>, fillcolor="#51e890"] ;
177 -> 179 ;
180 [label=<VALOR_ARRECADADO &le; 3720.915<br/>gini = 0.31<br/>samples = 117<br/>value = [9, 96, 12]<br/>class = sctrans>, fillcolor="#61ea9a"] ;
179 -> 180 ;
181 [label=<VALOR_ARRECADADO &le; 654.51<br/>gini = 0.3<br/>samples = 116<br/>value = [8, 96, 12]<br/>class = sctrans>, fillcolor="#5fea99"] ;
180 -> 181 ;
182 [label=<VALOR_ARRECADADO &le; 558.475<br/>gini = 0.372<br/>samples = 70<br/>value = [4, 54, 12]<br/>class = sctrans>, fillcolor="#70eca4"] ;
181 -> 182 ;
183 [label=<VALOR_ARRECADADO &le; 143.25<br/>gini = 0.279<br/>samples = 55<br/>value = [1, 46, 8]<br/>class = sctrans>, fillcolor="#5fea99"] ;
182 -> 183 ;
184 [label=<VALOR_ARRECADADO &le; 139.92<br/>gini = 0.5<br/>samples = 2<br/>value = [0, 1, 1]<br/>class = sctrans>, fillcolor="#ffffff"] ;
183 -> 184 ;
185 [label=<gini = 0.0<br/>samples = 1<br/>value = [0, 1, 0]<br/>class = sctrans>, fillcolor="#39e581"] ;
184 -> 185 ;
186 [label=<gini = 0.0<br/>samples = 1<br/>value = [0, 0, 1]<br/>class = instituto de previdencia e assistencia social>, fillcolor="#8139e5"] ;
184 -> 186 ;
187 [label=<VALOR_ARRECADADO &le; 429.595<br/>gini = 0.261<br/>samples = 53<br/>value = [1, 45, 7]<br/>class = sctrans>, fillcolor="#5bea97"] ;
183 -> 187 ;
188 [label=<VALOR_ARRECADADO &le; 406.985<br/>gini = 0.299<br/>samples = 45<br/>value = [1, 37, 7]<br/>class = sctrans>, fillcolor="#63ea9c"] ;
187 -> 188 ;
189 [label=<VALOR_ARRECADADO &le; 378.48<br/>gini = 0.246<br/>samples = 43<br/>value = [1, 37, 5]<br/>class = sctrans>, fillcolor="#58e995"] ;
188 -> 189 ;
190 [label=<VALOR_ARRECADADO &le; 301.435<br/>gini = 0.214<br/>samples = 41<br/>value = [0, 36, 5]<br/>class = sctrans>, fillcolor="#54e992"] ;
189 -> 190 ;
191 [label=<VALOR_ARRECADADO &le; 279.665<br/>gini = 0.293<br/>samples = 28<br/>value = [0, 23, 5]<br/>class = sctrans>, fillcolor="#64eb9c"] ;
190 -> 191 ;
192 [label=<VALOR_ARRECADADO &le; 227.915<br/>gini = 0.252<br/>samples = 27<br/>value = [0, 23, 4]<br/>class = sctrans>, fillcolor="#5bea97"] ;
191 -> 192 ;
193 [label=<VALOR_ARRECADADO &le; 225.655<br/>gini = 0.308<br/>samples = 21<br/>value = [0, 17, 4]<br/>class = sctrans>, fillcolor="#68eb9f"] ;
192 -> 193 ;
194 [label=<VALOR_ARRECADADO &le; 210.615<br/>gini = 0.255<br/>samples = 20<br/>value = [0, 17, 3]<br/>class = sctrans>, fillcolor="#5cea97"] ;
193 -> 194 ;
195 [label=<VALOR_ARRECADADO &le; 194.435<br/>gini = 0.32<br/>samples = 15<br/>value = [0, 12, 3]<br/>class = sctrans>, fillcolor="#6aeca0"] ;
194 -> 195 ;
196 [label=<VALOR_ARRECADADO &le; 148.82<br/>gini = 0.245<br/>samples = 14<br/>value = [0, 12, 2]<br/>class = sctrans>, fillcolor="#5ae996"] ;
195 -> 196 ;
197 [label=<gini = 0.0<br/>samples = 3<br/>value = [0, 3, 0]<br/>class = sctrans>, fillcolor="#39e581"] ;
196 -> 197 ;
198 [label=<VALOR_ARRECADADO &le; 183.385<br/>gini = 0.298<br/>samples = 11<br/>value = [0, 9, 2]<br/>class = sctrans>, fillcolor="#65eb9d"] ;
196 -> 198 ;
199 [label=<VALOR_ARRECADADO &le; 178.125<br/>gini = 0.375<br/>samples = 8<br/>value = [0, 6, 2]<br/>class = sctrans>, fillcolor="#7beeab"] ;
198 -> 199 ;
200 [label=<VALOR_ARRECADADO &le; 150.945<br/>gini = 0.245<br/>samples = 7<br/>value = [0, 6, 1]<br/>class = sctrans>, fillcolor="#5ae996"] ;
199 -> 200 ;
201 [label=<gini = 0.375<br/>samples = 4<br/>value = [0, 3, 1]<br/>class = sctrans>, fillcolor="#7beeab"] ;
200 -> 201 ;
202 [label=<gini = 0.0<br/>samples = 3<br/>value = [0, 3, 0]<br/>class = sctrans>, fillcolor="#39e581"] ;
200 -> 202 ;
203 [label=<gini = 0.0<br/>samples = 1<br/>value = [0, 0, 1]<br/>class = instituto de previdencia e assistencia social>, fillcolor="#8139e5"] ;
199 -> 203 ;
204 [label=<gini = 0.0<br/>samples = 3<br/>value = [0, 3, 0]<br/>class = sctrans>, fillcolor="#39e581"] ;
198 -> 204 ;
205 [label=<gini = 0.0<br/>samples = 1<br/>value = [0, 0, 1]<br/>class = instituto de previdencia e assistencia social>, fillcolor="#8139e5"] ;
195 -> 205 ;
206 [label=<gini = 0.0<br/>samples = 5<br/>value = [0, 5, 0]<br/>class = sctrans>, fillcolor="#39e581"] ;
194 -> 206 ;
207 [label=<gini = 0.0<br/>samples = 1<br/>value = [0, 0, 1]<br/>class = instituto de previdencia e assistencia social>, fillcolor="#8139e5"] ;
193 -> 207 ;
208 [label=<gini = 0.0<br/>samples = 6<br/>value = [0, 6, 0]<br/>class = sctrans>, fillcolor="#39e581"] ;
192 -> 208 ;
209 [label=<gini = 0.0<br/>samples = 1<br/>value = [0, 0, 1]<br/>class = instituto de previdencia e assistencia social>, fillcolor="#8139e5"] ;
191 -> 209 ;
210 [label=<gini = 0.0<br/>samples = 13<br/>value = [0, 13, 0]<br/>class = sctrans>, fillcolor="#39e581"] ;
190 -> 210 ;
211 [label=<VALOR_ARRECADADO &le; 387.175<br/>gini = 0.5<br/>samples = 2<br/>value = [1, 1, 0]<br/>class = prefeitura municipal>, fillcolor="#ffffff"] ;
189 -> 211 ;
212 [label=<gini = 0.0<br/>samples = 1<br/>value = [1, 0, 0]<br/>class = prefeitura municipal>, fillcolor="#e58139"] ;
211 -> 212 ;
213 [label=<gini = 0.0<br/>samples = 1<br/>value = [0, 1, 0]<br/>class = sctrans>, fillcolor="#39e581"] ;
211 -> 213 ;
214 [label=<gini = 0.0<br/>samples = 2<br/>value = [0, 0, 2]<br/>class = instituto de previdencia e assistencia social>, fillcolor="#8139e5"] ;
188 -> 214 ;
215 [label=<gini = 0.0<br/>samples = 8<br/>value = [0, 8, 0]<br/>class = sctrans>, fillcolor="#39e581"] ;
187 -> 215 ;
216 [label=<VALOR_ARRECADADO &le; 579.365<br/>gini = 0.604<br/>samples = 15<br/>value = [3, 8, 4]<br/>class = sctrans>, fillcolor="#b7f6d1"] ;
182 -> 216 ;
217 [label=<VALOR_ARRECADADO &le; 563.09<br/>gini = 0.444<br/>samples = 3<br/>value = [2, 1, 0]<br/>class = prefeitura municipal>, fillcolor="#f2c09c"] ;
216 -> 217 ;
218 [label=<gini = 0.0<br/>samples = 1<br/>value = [1, 0, 0]<br/>class = prefeitura municipal>, fillcolor="#e58139"] ;
217 -> 218 ;
219 [label=<VALOR_ARRECADADO &le; 571.265<br/>gini = 0.5<br/>samples = 2<br/>value = [1, 1, 0]<br/>class = prefeitura municipal>, fillcolor="#ffffff"] ;
217 -> 219 ;
220 [label=<gini = 0.0<br/>samples = 1<br/>value = [0, 1, 0]<br/>class = sctrans>, fillcolor="#39e581"] ;
219 -> 220 ;
221 [label=<gini = 0.0<br/>samples = 1<br/>value = [1, 0, 0]<br/>class = prefeitura municipal>, fillcolor="#e58139"] ;
219 -> 221 ;
222 [label=<VALOR_ARRECADADO &le; 584.08<br/>gini = 0.542<br/>samples = 12<br/>value = [1, 7, 4]<br/>class = sctrans>, fillcolor="#b5f5d0"] ;
216 -> 222 ;
223 [label=<gini = 0.0<br/>samples = 1<br/>value = [0, 0, 1]<br/>class = instituto de previdencia e assistencia social>, fillcolor="#8139e5"] ;
222 -> 223 ;
224 [label=<VALOR_ARRECADADO &le; 608.95<br/>gini = 0.512<br/>samples = 11<br/>value = [1, 7, 3]<br/>class = sctrans>, fillcolor="#9cf2c0"] ;
222 -> 224 ;
225 [label=<VALOR_ARRECADADO &le; 596.235<br/>gini = 0.32<br/>samples = 5<br/>value = [1, 4, 0]<br/>class = sctrans>, fillcolor="#6aeca0"] ;
224 -> 225 ;
226 [label=<gini = 0.0<br/>samples = 3<br/>value = [0, 3, 0]<br/>class = sctrans>, fillcolor="#39e581"] ;
225 -> 226 ;
227 [label=<VALOR_ARRECADADO &le; 602.63<br/>gini = 0.5<br/>samples = 2<br/>value = [1, 1, 0]<br/>class = prefeitura municipal>, fillcolor="#ffffff"] ;
225 -> 227 ;
228 [label=<gini = 0.0<br/>samples = 1<br/>value = [1, 0, 0]<br/>class = prefeitura municipal>, fillcolor="#e58139"] ;
227 -> 228 ;
229 [label=<gini = 0.0<br/>samples = 1<br/>value = [0, 1, 0]<br/>class = sctrans>, fillcolor="#39e581"] ;
227 -> 229 ;
230 [label=<VALOR_ARRECADADO &le; 633.375<br/>gini = 0.5<br/>samples = 6<br/>value = [0, 3, 3]<br/>class = sctrans>, fillcolor="#ffffff"] ;
224 -> 230 ;
231 [label=<gini = 0.0<br/>samples = 2<br/>value = [0, 0, 2]<br/>class = instituto de previdencia e assistencia social>, fillcolor="#8139e5"] ;
230 -> 231 ;
232 [label=<VALOR_ARRECADADO &le; 650.495<br/>gini = 0.375<br/>samples = 4<br/>value = [0, 3, 1]<br/>class = sctrans>, fillcolor="#7beeab"] ;
230 -> 232 ;
233 [label=<gini = 0.0<br/>samples = 3<br/>value = [0, 3, 0]<br/>class = sctrans>, fillcolor="#39e581"] ;
232 -> 233 ;
234 [label=<gini = 0.0<br/>samples = 1<br/>value = [0, 0, 1]<br/>class = instituto de previdencia e assistencia social>, fillcolor="#8139e5"] ;
232 -> 234 ;
235 [label=<VALOR_ARRECADADO &le; 1247.67<br/>gini = 0.159<br/>samples = 46<br/>value = [4, 42, 0]<br/>class = sctrans>, fillcolor="#4ce78d"] ;
181 -> 235 ;
236 [label=<VALOR_ARRECADADO &le; 925.67<br/>gini = 0.074<br/>samples = 26<br/>value = [1, 25, 0]<br/>class = sctrans>, fillcolor="#41e686"] ;
235 -> 236 ;
237 [label=<gini = 0.0<br/>samples = 13<br/>value = [0, 13, 0]<br/>class = sctrans>, fillcolor="#39e581"] ;
236 -> 237 ;
238 [label=<VALOR_ARRECADADO &le; 937.61<br/>gini = 0.142<br/>samples = 13<br/>value = [1, 12, 0]<br/>class = sctrans>, fillcolor="#49e78c"] ;
236 -> 238 ;
239 [label=<gini = 0.0<br/>samples = 1<br/>value = [1, 0, 0]<br/>class = prefeitura municipal>, fillcolor="#e58139"] ;
238 -> 239 ;
240 [label=<gini = 0.0<br/>samples = 12<br/>value = [0, 12, 0]<br/>class = sctrans>, fillcolor="#39e581"] ;
238 -> 240 ;
241 [label=<VALOR_ARRECADADO &le; 1282.125<br/>gini = 0.255<br/>samples = 20<br/>value = [3, 17, 0]<br/>class = sctrans>, fillcolor="#5cea97"] ;
235 -> 241 ;
242 [label=<gini = 0.0<br/>samples = 1<br/>value = [1, 0, 0]<br/>class = prefeitura municipal>, fillcolor="#e58139"] ;
241 -> 242 ;
243 [label=<VALOR_ARRECADADO &le; 1770.715<br/>gini = 0.188<br/>samples = 19<br/>value = [2, 17, 0]<br/>class = sctrans>, fillcolor="#50e890"] ;
241 -> 243 ;
244 [label=<VALOR_ARRECADADO &le; 1584.46<br/>gini = 0.375<br/>samples = 4<br/>value = [1, 3, 0]<br/>class = sctrans>, fillcolor="#7beeab"] ;
243 -> 244 ;
245 [label=<gini = 0.0<br/>samples = 3<br/>value = [0, 3, 0]<br/>class = sctrans>, fillcolor="#39e581"] ;
244 -> 245 ;
246 [label=<gini = 0.0<br/>samples = 1<br/>value = [1, 0, 0]<br/>class = prefeitura municipal>, fillcolor="#e58139"] ;
244 -> 246 ;
247 [label=<VALOR_ARRECADADO &le; 2957.08<br/>gini = 0.124<br/>samples = 15<br/>value = [1, 14, 0]<br/>class = sctrans>, fillcolor="#47e78a"] ;
243 -> 247 ;
248 [label=<gini = 0.0<br/>samples = 11<br/>value = [0, 11, 0]<br/>class = sctrans>, fillcolor="#39e581"] ;
247 -> 248 ;
249 [label=<VALOR_ARRECADADO &le; 3173.905<br/>gini = 0.375<br/>samples = 4<br/>value = [1, 3, 0]<br/>class = sctrans>, fillcolor="#7beeab"] ;
247 -> 249 ;
250 [label=<gini = 0.0<br/>samples = 1<br/>value = [1, 0, 0]<br/>class = prefeitura municipal>, fillcolor="#e58139"] ;
249 -> 250 ;
251 [label=<gini = 0.0<br/>samples = 3<br/>value = [0, 3, 0]<br/>class = sctrans>, fillcolor="#39e581"] ;
249 -> 251 ;
252 [label=<gini = 0.0<br/>samples = 1<br/>value = [1, 0, 0]<br/>class = prefeitura municipal>, fillcolor="#e58139"] ;
180 -> 252 ;
253 [label=<VALOR_ARRECADADO &le; 244.11<br/>gini = 0.193<br/>samples = 1630<br/>value = [28, 1457, 145]<br/>class = sctrans>, fillcolor="#50e890"] ;
179 -> 253 ;
254 [label=<VALOR_ARRECADADO &le; 170.935<br/>gini = 0.132<br/>samples = 355<br/>value = [4, 330, 21]<br/>class = sctrans>, fillcolor="#48e78a"] ;
253 -> 254 ;
255 [label=<VALOR_ARRECADADO &le; 170.53<br/>gini = 0.207<br/>samples = 130<br/>value = [2, 115, 13]<br/>class = sctrans>, fillcolor="#52e891"] ;
254 -> 255 ;
256 [label=<VALOR_ARRECADADO &le; 162.425<br/>gini = 0.195<br/>samples = 129<br/>value = [1, 115, 13]<br/>class = sctrans>, fillcolor="#51e890"] ;
255 -> 256 ;
257 [label=<VALOR_ARRECADADO &le; 154.27<br/>gini = 0.168<br/>samples = 109<br/>value = [1, 99, 9]<br/>class = sctrans>, fillcolor="#4de88e"] ;
256 -> 257 ;
258 [label=<VALOR_ARRECADADO &le; 153.9<br/>gini = 0.226<br/>samples = 78<br/>value = [1, 68, 9]<br/>class = sctrans>, fillcolor="#56e993"] ;
257 -> 258 ;
259 [label=<ANO &le; 2015.5<br/>gini = 0.191<br/>samples = 76<br/>value = [1, 68, 7]<br/>class = sctrans>, fillcolor="#50e890"] ;
258 -> 259 ;
260 [label=<VALOR_ARRECADADO &le; 149.425<br/>gini = 0.34<br/>samples = 29<br/>value = [1, 23, 5]<br/>class = sctrans>, fillcolor="#6aeca0"] ;
259 -> 260 ;
261 [label=<VALOR_ARRECADADO &le; 142.705<br/>gini = 0.117<br/>samples = 16<br/>value = [0, 15, 1]<br/>class = sctrans>, fillcolor="#46e789"] ;
260 -> 261 ;
262 [label=<gini = 0.0<br/>samples = 9<br/>value = [0, 9, 0]<br/>class = sctrans>, fillcolor="#39e581"] ;
261 -> 262 ;
263 [label=<VALOR_ARRECADADO &le; 143.055<br/>gini = 0.245<br/>samples = 7<br/>value = [0, 6, 1]<br/>class = sctrans>, fillcolor="#5ae996"] ;
261 -> 263 ;
264 [label=<gini = 0.0<br/>samples = 1<br/>value = [0, 0, 1]<br/>class = instituto de previdencia e assistencia social>, fillcolor="#8139e5"] ;
263 -> 264 ;
265 [label=<gini = 0.0<br/>samples = 6<br/>value = [0, 6, 0]<br/>class = sctrans>, fillcolor="#39e581"] ;
263 -> 265 ;
266 [label=<VALOR_ARRECADADO &le; 149.595<br/>gini = 0.521<br/>samples = 13<br/>value = [1, 8, 4]<br/>class = sctrans>, fillcolor="#a7f3c7"] ;
260 -> 266 ;
267 [label=<gini = 0.0<br/>samples = 1<br/>value = [0, 0, 1]<br/>class = instituto de previdencia e assistencia social>, fillcolor="#8139e5"] ;
266 -> 267 ;
268 [label=<VALOR_ARRECADADO &le; 152.055<br/>gini = 0.486<br/>samples = 12<br/>value = [1, 8, 3]<br/>class = sctrans>, fillcolor="#91f1b9"] ;
266 -> 268 ;
269 [label=<VALOR_ARRECADADO &le; 149.955<br/>gini = 0.406<br/>samples = 8<br/>value = [1, 6, 1]<br/>class = sctrans>, fillcolor="#72eca5"] ;
268 -> 269 ;
270 [label=<VALOR_ARRECADADO &le; 149.8<br/>gini = 0.444<br/>samples = 3<br/>value = [1, 2, 0]<br/>class = sctrans>, fillcolor="#9cf2c0"] ;
269 -> 270 ;
271 [label=<gini = 0.0<br/>samples = 2<br/>value = [0, 2, 0]<br/>class = sctrans>, fillcolor="#39e581"] ;
270 -> 271 ;
272 [label=<gini = 0.0<br/>samples = 1<br/>value = [1, 0, 0]<br/>class = prefeitura municipal>, fillcolor="#e58139"] ;
270 -> 272 ;
273 [label=<VALOR_ARRECADADO &le; 150.175<br/>gini = 0.32<br/>samples = 5<br/>value = [0, 4, 1]<br/>class = sctrans>, fillcolor="#6aeca0"] ;
269 -> 273 ;
274 [label=<gini = 0.444<br/>samples = 3<br/>value = [0, 2, 1]<br/>class = sctrans>, fillcolor="#9cf2c0"] ;
273 -> 274 ;
275 [label=<gini = 0.0<br/>samples = 2<br/>value = [0, 2, 0]<br/>class = sctrans>, fillcolor="#39e581"] ;
273 -> 275 ;
276 [label=<VALOR_ARRECADADO &le; 153.31<br/>gini = 0.5<br/>samples = 4<br/>value = [0, 2, 2]<br/>class = sctrans>, fillcolor="#ffffff"] ;
268 -> 276 ;
277 [label=<gini = 0.0<br/>samples = 2<br/>value = [0, 0, 2]<br/>class = instituto de previdencia e assistencia social>, fillcolor="#8139e5"] ;
276 -> 277 ;
278 [label=<gini = 0.0<br/>samples = 2<br/>value = [0, 2, 0]<br/>class = sctrans>, fillcolor="#39e581"] ;
276 -> 278 ;
279 [label=<ANO &le; 2018.5<br/>gini = 0.081<br/>samples = 47<br/>value = [0, 45, 2]<br/>class = sctrans>, fillcolor="#42e687"] ;
259 -> 279 ;
280 [label=<VALOR_ARRECADADO &le; 148.045<br/>gini = 0.172<br/>samples = 21<br/>value = [0, 19, 2]<br/>class = sctrans>, fillcolor="#4ee88e"] ;
279 -> 280 ;
281 [label=<VALOR_ARRECADADO &le; 146.21<br/>gini = 0.32<br/>samples = 10<br/>value = [0, 8, 2]<br/>class = sctrans>, fillcolor="#6aeca0"] ;
280 -> 281 ;
282 [label=<VALOR_ARRECADADO &le; 140.16<br/>gini = 0.198<br/>samples = 9<br/>value = [0, 8, 1]<br/>class = sctrans>, fillcolor="#52e891"] ;
281 -> 282 ;
283 [label=<VALOR_ARRECADADO &le; 138.99<br/>gini = 0.32<br/>samples = 5<br/>value = [0, 4, 1]<br/>class = sctrans>, fillcolor="#6aeca0"] ;
282 -> 283 ;
284 [label=<gini = 0.0<br/>samples = 3<br/>value = [0, 3, 0]<br/>class = sctrans>, fillcolor="#39e581"] ;
283 -> 284 ;
285 [label=<gini = 0.5<br/>samples = 2<br/>value = [0, 1, 1]<br/>class = sctrans>, fillcolor="#ffffff"] ;
283 -> 285 ;
286 [label=<gini = 0.0<br/>samples = 4<br/>value = [0, 4, 0]<br/>class = sctrans>, fillcolor="#39e581"] ;
282 -> 286 ;
287 [label=<gini = 0.0<br/>samples = 1<br/>value = [0, 0, 1]<br/>class = instituto de previdencia e assistencia social>, fillcolor="#8139e5"] ;
281 -> 287 ;
288 [label=<gini = 0.0<br/>samples = 11<br/>value = [0, 11, 0]<br/>class = sctrans>, fillcolor="#39e581"] ;
280 -> 288 ;
289 [label=<gini = 0.0<br/>samples = 26<br/>value = [0, 26, 0]<br/>class = sctrans>, fillcolor="#39e581"] ;
279 -> 289 ;
290 [label=<gini = 0.0<br/>samples = 2<br/>value = [0, 0, 2]<br/>class = instituto de previdencia e assistencia social>, fillcolor="#8139e5"] ;
258 -> 290 ;
291 [label=<gini = 0.0<br/>samples = 31<br/>value = [0, 31, 0]<br/>class = sctrans>, fillcolor="#39e581"] ;
257 -> 291 ;
292 [label=<VALOR_ARRECADADO &le; 164.05<br/>gini = 0.32<br/>samples = 20<br/>value = [0, 16, 4]<br/>class = sctrans>, fillcolor="#6aeca0"] ;
256 -> 292 ;
293 [label=<gini = 0.0<br/>samples = 1<br/>value = [0, 0, 1]<br/>class = instituto de previdencia e assistencia social>, fillcolor="#8139e5"] ;
292 -> 293 ;
294 [label=<ANO &le; 2017.5<br/>gini = 0.266<br/>samples = 19<br/>value = [0, 16, 3]<br/>class = sctrans>, fillcolor="#5eea99"] ;
292 -> 294 ;
295 [label=<gini = 0.0<br/>samples = 7<br/>value = [0, 7, 0]<br/>class = sctrans>, fillcolor="#39e581"] ;
294 -> 295 ;
296 [label=<ANO &le; 2019.5<br/>gini = 0.375<br/>samples = 12<br/>value = [0, 9, 3]<br/>class = sctrans>, fillcolor="#7beeab"] ;
294 -> 296 ;
297 [label=<VALOR_ARRECADADO &le; 165.825<br/>gini = 0.5<br/>samples = 6<br/>value = [0, 3, 3]<br/>class = sctrans>, fillcolor="#ffffff"] ;
296 -> 297 ;
298 [label=<gini = 0.0<br/>samples = 1<br/>value = [0, 0, 1]<br/>class = instituto de previdencia e assistencia social>, fillcolor="#8139e5"] ;
297 -> 298 ;
299 [label=<VALOR_ARRECADADO &le; 167.175<br/>gini = 0.48<br/>samples = 5<br/>value = [0, 3, 2]<br/>class = sctrans>, fillcolor="#bdf6d5"] ;
297 -> 299 ;
300 [label=<gini = 0.0<br/>samples = 1<br/>value = [0, 1, 0]<br/>class = sctrans>, fillcolor="#39e581"] ;
299 -> 300 ;
301 [label=<VALOR_ARRECADADO &le; 167.435<br/>gini = 0.5<br/>samples = 4<br/>value = [0, 2, 2]<br/>class = sctrans>, fillcolor="#ffffff"] ;
299 -> 301 ;
302 [label=<gini = 0.0<br/>samples = 1<br/>value = [0, 0, 1]<br/>class = instituto de previdencia e assistencia social>, fillcolor="#8139e5"] ;
301 -> 302 ;
303 [label=<ANO &le; 2018.5<br/>gini = 0.444<br/>samples = 3<br/>value = [0, 2, 1]<br/>class = sctrans>, fillcolor="#9cf2c0"] ;
301 -> 303 ;
304 [label=<VALOR_ARRECADADO &le; 168.335<br/>gini = 0.5<br/>samples = 2<br/>value = [0, 1, 1]<br/>class = sctrans>, fillcolor="#ffffff"] ;
303 -> 304 ;
305 [label=<gini = 0.0<br/>samples = 1<br/>value = [0, 1, 0]<br/>class = sctrans>, fillcolor="#39e581"] ;
304 -> 305 ;
306 [label=<gini = 0.0<br/>samples = 1<br/>value = [0, 0, 1]<br/>class = instituto de previdencia e assistencia social>, fillcolor="#8139e5"] ;
304 -> 306 ;
307 [label=<gini = 0.0<br/>samples = 1<br/>value = [0, 1, 0]<br/>class = sctrans>, fillcolor="#39e581"] ;
303 -> 307 ;
308 [label=<gini = 0.0<br/>samples = 6<br/>value = [0, 6, 0]<br/>class = sctrans>, fillcolor="#39e581"] ;
296 -> 308 ;
309 [label=<gini = 0.0<br/>samples = 1<br/>value = [1, 0, 0]<br/>class = prefeitura municipal>, fillcolor="#e58139"] ;
255 -> 309 ;
310 [label=<VALOR_ARRECADADO &le; 198.95<br/>gini = 0.086<br/>samples = 225<br/>value = [2, 215, 8]<br/>class = sctrans>, fillcolor="#42e687"] ;
254 -> 310 ;
311 [label=<VALOR_ARRECADADO &le; 180.715<br/>gini = 0.019<br/>samples = 107<br/>value = [0, 106, 1]<br/>class = sctrans>, fillcolor="#3be582"] ;
310 -> 311 ;
312 [label=<VALOR_ARRECADADO &le; 179.795<br/>gini = 0.04<br/>samples = 49<br/>value = [0, 48, 1]<br/>class = sctrans>, fillcolor="#3de684"] ;
311 -> 312 ;
313 [label=<gini = 0.0<br/>samples = 44<br/>value = [0, 44, 0]<br/>class = sctrans>, fillcolor="#39e581"] ;
312 -> 313 ;
314 [label=<ANO &le; 2017.5<br/>gini = 0.32<br/>samples = 5<br/>value = [0, 4, 1]<br/>class = sctrans>, fillcolor="#6aeca0"] ;
312 -> 314 ;
315 [label=<ANO &le; 2015.5<br/>gini = 0.5<br/>samples = 2<br/>value = [0, 1, 1]<br/>class = sctrans>, fillcolor="#ffffff"] ;
314 -> 315 ;
316 [label=<gini = 0.0<br/>samples = 1<br/>value = [0, 1, 0]<br/>class = sctrans>, fillcolor="#39e581"] ;
315 -> 316 ;
317 [label=<gini = 0.0<br/>samples = 1<br/>value = [0, 0, 1]<br/>class = instituto de previdencia e assistencia social>, fillcolor="#8139e5"] ;
315 -> 317 ;
318 [label=<gini = 0.0<br/>samples = 3<br/>value = [0, 3, 0]<br/>class = sctrans>, fillcolor="#39e581"] ;
314 -> 318 ;
319 [label=<gini = 0.0<br/>samples = 58<br/>value = [0, 58, 0]<br/>class = sctrans>, fillcolor="#39e581"] ;
311 -> 319 ;
320 [label=<VALOR_ARRECADADO &le; 199.345<br/>gini = 0.143<br/>samples = 118<br/>value = [2, 109, 7]<br/>class = sctrans>, fillcolor="#49e78b"] ;
310 -> 320 ;
321 [label=<gini = 0.0<br/>samples = 1<br/>value = [0, 0, 1]<br/>class = instituto de previdencia e assistencia social>, fillcolor="#8139e5"] ;
320 -> 321 ;
322 [label=<ANO &le; 2015.5<br/>gini = 0.129<br/>samples = 117<br/>value = [2, 109, 6]<br/>class = sctrans>, fillcolor="#47e78a"] ;
320 -> 322 ;
323 [label=<gini = 0.0<br/>samples = 31<br/>value = [0, 31, 0]<br/>class = sctrans>, fillcolor="#39e581"] ;
322 -> 323 ;
324 [label=<ANO &le; 2018.5<br/>gini = 0.172<br/>samples = 86<br/>value = [2, 78, 6]<br/>class = sctrans>, fillcolor="#4de88e"] ;
322 -> 324 ;
325 [label=<VALOR_ARRECADADO &le; 240.01<br/>gini = 0.314<br/>samples = 38<br/>value = [2, 31, 5]<br/>class = sctrans>, fillcolor="#63eb9c"] ;
324 -> 325 ;
326 [label=<VALOR_ARRECADADO &le; 219.365<br/>gini = 0.37<br/>samples = 31<br/>value = [2, 24, 5]<br/>class = sctrans>, fillcolor="#6eeca3"] ;
325 -> 326 ;
327 [label=<VALOR_ARRECADADO &le; 210.75<br/>gini = 0.254<br/>samples = 21<br/>value = [1, 18, 2]<br/>class = sctrans>, fillcolor="#58e995"] ;
326 -> 327 ;
328 [label=<VALOR_ARRECADADO &le; 208.75<br/>gini = 0.338<br/>samples = 15<br/>value = [1, 12, 2]<br/>class = sctrans>, fillcolor="#67eb9e"] ;
327 -> 328 ;
329 [label=<VALOR_ARRECADADO &le; 206.29<br/>gini = 0.272<br/>samples = 13<br/>value = [1, 11, 1]<br/>class = sctrans>, fillcolor="#5ae996"] ;
328 -> 329 ;
330 [label=<ANO &le; 2016.5<br/>gini = 0.18<br/>samples = 10<br/>value = [0, 9, 1]<br/>class = sctrans>, fillcolor="#4fe88f"] ;
329 -> 330 ;
331 [label=<VALOR_ARRECADADO &le; 199.745<br/>gini = 0.444<br/>samples = 3<br/>value = [0, 2, 1]<br/>class = sctrans>, fillcolor="#9cf2c0"] ;
330 -> 331 ;
332 [label=<gini = 0.0<br/>samples = 1<br/>value = [0, 1, 0]<br/>class = sctrans>, fillcolor="#39e581"] ;
331 -> 332 ;
333 [label=<VALOR_ARRECADADO &le; 202.6<br/>gini = 0.5<br/>samples = 2<br/>value = [0, 1, 1]<br/>class = sctrans>, fillcolor="#ffffff"] ;
331 -> 333 ;
334 [label=<gini = 0.0<br/>samples = 1<br/>value = [0, 0, 1]<br/>class = instituto de previdencia e assistencia social>, fillcolor="#8139e5"] ;
333 -> 334 ;
335 [label=<gini = 0.0<br/>samples = 1<br/>value = [0, 1, 0]<br/>class = sctrans>, fillcolor="#39e581"] ;
333 -> 335 ;
336 [label=<gini = 0.0<br/>samples = 7<br/>value = [0, 7, 0]<br/>class = sctrans>, fillcolor="#39e581"] ;
330 -> 336 ;
337 [label=<VALOR_ARRECADADO &le; 207.8<br/>gini = 0.444<br/>samples = 3<br/>value = [1, 2, 0]<br/>class = sctrans>, fillcolor="#9cf2c0"] ;
329 -> 337 ;
338 [label=<gini = 0.0<br/>samples = 1<br/>value = [1, 0, 0]<br/>class = prefeitura municipal>, fillcolor="#e58139"] ;
337 -> 338 ;
339 [label=<gini = 0.0<br/>samples = 2<br/>value = [0, 2, 0]<br/>class = sctrans>, fillcolor="#39e581"] ;
337 -> 339 ;
340 [label=<ANO &le; 2017.0<br/>gini = 0.5<br/>samples = 2<br/>value = [0, 1, 1]<br/>class = sctrans>, fillcolor="#ffffff"] ;
328 -> 340 ;
341 [label=<gini = 0.0<br/>samples = 1<br/>value = [0, 1, 0]<br/>class = sctrans>, fillcolor="#39e581"] ;
340 -> 341 ;
342 [label=<gini = 0.0<br/>samples = 1<br/>value = [0, 0, 1]<br/>class = instituto de previdencia e assistencia social>, fillcolor="#8139e5"] ;
340 -> 342 ;
343 [label=<gini = 0.0<br/>samples = 6<br/>value = [0, 6, 0]<br/>class = sctrans>, fillcolor="#39e581"] ;
327 -> 343 ;
344 [label=<VALOR_ARRECADADO &le; 220.335<br/>gini = 0.54<br/>samples = 10<br/>value = [1, 6, 3]<br/>class = sctrans>, fillcolor="#aaf4c9"] ;
326 -> 344 ;
345 [label=<gini = 0.0<br/>samples = 1<br/>value = [1, 0, 0]<br/>class = prefeitura municipal>, fillcolor="#e58139"] ;
344 -> 345 ;
346 [label=<VALOR_ARRECADADO &le; 224.615<br/>gini = 0.444<br/>samples = 9<br/>value = [0, 6, 3]<br/>class = sctrans>, fillcolor="#9cf2c0"] ;
344 -> 346 ;
347 [label=<gini = 0.0<br/>samples = 1<br/>value = [0, 0, 1]<br/>class = instituto de previdencia e assistencia social>, fillcolor="#8139e5"] ;
346 -> 347 ;
348 [label=<ANO &le; 2016.5<br/>gini = 0.375<br/>samples = 8<br/>value = [0, 6, 2]<br/>class = sctrans>, fillcolor="#7beeab"] ;
346 -> 348 ;
349 [label=<gini = 0.0<br/>samples = 3<br/>value = [0, 3, 0]<br/>class = sctrans>, fillcolor="#39e581"] ;
348 -> 349 ;
350 [label=<VALOR_ARRECADADO &le; 229.01<br/>gini = 0.48<br/>samples = 5<br/>value = [0, 3, 2]<br/>class = sctrans>, fillcolor="#bdf6d5"] ;
348 -> 350 ;
351 [label=<gini = 0.0<br/>samples = 1<br/>value = [0, 1, 0]<br/>class = sctrans>, fillcolor="#39e581"] ;
350 -> 351 ;
352 [label=<VALOR_ARRECADADO &le; 230.3<br/>gini = 0.5<br/>samples = 4<br/>value = [0, 2, 2]<br/>class = sctrans>, fillcolor="#ffffff"] ;
350 -> 352 ;
353 [label=<gini = 0.0<br/>samples = 1<br/>value = [0, 0, 1]<br/>class = instituto de previdencia e assistencia social>, fillcolor="#8139e5"] ;
352 -> 353 ;
354 [label=<ANO &le; 2017.5<br/>gini = 0.444<br/>samples = 3<br/>value = [0, 2, 1]<br/>class = sctrans>, fillcolor="#9cf2c0"] ;
352 -> 354 ;
355 [label=<gini = 0.0<br/>samples = 1<br/>value = [0, 0, 1]<br/>class = instituto de previdencia e assistencia social>, fillcolor="#8139e5"] ;
354 -> 355 ;
356 [label=<gini = 0.0<br/>samples = 2<br/>value = [0, 2, 0]<br/>class = sctrans>, fillcolor="#39e581"] ;
354 -> 356 ;
357 [label=<gini = 0.0<br/>samples = 7<br/>value = [0, 7, 0]<br/>class = sctrans>, fillcolor="#39e581"] ;
325 -> 357 ;
358 [label=<VALOR_ARRECADADO &le; 207.67<br/>gini = 0.041<br/>samples = 48<br/>value = [0, 47, 1]<br/>class = sctrans>, fillcolor="#3de684"] ;
324 -> 358 ;
359 [label=<VALOR_ARRECADADO &le; 206.03<br/>gini = 0.142<br/>samples = 13<br/>value = [0, 12, 1]<br/>class = sctrans>, fillcolor="#49e78c"] ;
358 -> 359 ;
360 [label=<gini = 0.0<br/>samples = 12<br/>value = [0, 12, 0]<br/>class = sctrans>, fillcolor="#39e581"] ;
359 -> 360 ;
361 [label=<gini = 0.0<br/>samples = 1<br/>value = [0, 0, 1]<br/>class = instituto de previdencia e assistencia social>, fillcolor="#8139e5"] ;
359 -> 361 ;
362 [label=<gini = 0.0<br/>samples = 35<br/>value = [0, 35, 0]<br/>class = sctrans>, fillcolor="#39e581"] ;
358 -> 362 ;
363 [label=<VALOR_ARRECADADO &le; 252.75<br/>gini = 0.209<br/>samples = 1275<br/>value = [24, 1127, 124]<br/>class = sctrans>, fillcolor="#52e891"] ;
253 -> 363 ;
364 [label=<ANO &le; 2016.5<br/>gini = 0.444<br/>samples = 15<br/>value = [0, 10, 5]<br/>class = sctrans>, fillcolor="#9cf2c0"] ;
363 -> 364 ;
365 [label=<VALOR_ARRECADADO &le; 245.195<br/>gini = 0.469<br/>samples = 8<br/>value = [0, 3, 5]<br/>class = instituto de previdencia e assistencia social>, fillcolor="#cdb0f5"] ;
364 -> 365 ;
366 [label=<ANO &le; 2015.5<br/>gini = 0.444<br/>samples = 3<br/>value = [0, 2, 1]<br/>class = sctrans>, fillcolor="#9cf2c0"] ;
365 -> 366 ;
367 [label=<gini = 0.0<br/>samples = 2<br/>value = [0, 2, 0]<br/>class = sctrans>, fillcolor="#39e581"] ;
366 -> 367 ;
368 [label=<gini = 0.0<br/>samples = 1<br/>value = [0, 0, 1]<br/>class = instituto de previdencia e assistencia social>, fillcolor="#8139e5"] ;
366 -> 368 ;
369 [label=<VALOR_ARRECADADO &le; 251.08<br/>gini = 0.32<br/>samples = 5<br/>value = [0, 1, 4]<br/>class = instituto de previdencia e assistencia social>, fillcolor="#a06aec"] ;
365 -> 369 ;
370 [label=<gini = 0.0<br/>samples = 3<br/>value = [0, 0, 3]<br/>class = instituto de previdencia e assistencia social>, fillcolor="#8139e5"] ;
369 -> 370 ;
371 [label=<ANO &le; 2014.5<br/>gini = 0.5<br/>samples = 2<br/>value = [0, 1, 1]<br/>class = sctrans>, fillcolor="#ffffff"] ;
369 -> 371 ;
372 [label=<gini = 0.0<br/>samples = 1<br/>value = [0, 0, 1]<br/>class = instituto de previdencia e assistencia social>, fillcolor="#8139e5"] ;
371 -> 372 ;
373 [label=<gini = 0.0<br/>samples = 1<br/>value = [0, 1, 0]<br/>class = sctrans>, fillcolor="#39e581"] ;
371 -> 373 ;
374 [label=<gini = 0.0<br/>samples = 7<br/>value = [0, 7, 0]<br/>class = sctrans>, fillcolor="#39e581"] ;
364 -> 374 ;
375 [label=<VALOR_ARRECADADO &le; 678.155<br/>gini = 0.205<br/>samples = 1260<br/>value = [24, 1117, 119]<br/>class = sctrans>, fillcolor="#52e891"] ;
363 -> 375 ;
376 [label=<VALOR_ARRECADADO &le; 676.35<br/>gini = 0.214<br/>samples = 569<br/>value = [3, 500, 66]<br/>class = sctrans>, fillcolor="#54e992"] ;
375 -> 376 ;
377 [label=<VALOR_ARRECADADO &le; 276.47<br/>gini = 0.21<br/>samples = 567<br/>value = [3, 500, 64]<br/>class = sctrans>, fillcolor="#53e892"] ;
376 -> 377 ;
378 [label=<ANO &le; 2016.5<br/>gini = 0.077<br/>samples = 50<br/>value = [0, 48, 2]<br/>class = sctrans>, fillcolor="#41e686"] ;
377 -> 378 ;
379 [label=<ANO &le; 2015.5<br/>gini = 0.18<br/>samples = 20<br/>value = [0, 18, 2]<br/>class = sctrans>, fillcolor="#4fe88f"] ;
378 -> 379 ;
380 [label=<gini = 0.0<br/>samples = 13<br/>value = [0, 13, 0]<br/>class = sctrans>, fillcolor="#39e581"] ;
379 -> 380 ;
381 [label=<VALOR_ARRECADADO &le; 260.395<br/>gini = 0.408<br/>samples = 7<br/>value = [0, 5, 2]<br/>class = sctrans>, fillcolor="#88efb3"] ;
379 -> 381 ;
382 [label=<gini = 0.0<br/>samples = 2<br/>value = [0, 2, 0]<br/>class = sctrans>, fillcolor="#39e581"] ;
381 -> 382 ;
383 [label=<VALOR_ARRECADADO &le; 268.21<br/>gini = 0.48<br/>samples = 5<br/>value = [0, 3, 2]<br/>class = sctrans>, fillcolor="#bdf6d5"] ;
381 -> 383 ;
384 [label=<VALOR_ARRECADADO &le; 263.49<br/>gini = 0.444<br/>samples = 3<br/>value = [0, 1, 2]<br/>class = instituto de previdencia e assistencia social>, fillcolor="#c09cf2"] ;
383 -> 384 ;
385 [label=<gini = 0.0<br/>samples = 1<br/>value = [0, 0, 1]<br/>class = instituto de previdencia e assistencia social>, fillcolor="#8139e5"] ;
384 -> 385 ;
386 [label=<VALOR_ARRECADADO &le; 266.655<br/>gini = 0.5<br/>samples = 2<br/>value = [0, 1, 1]<br/>class = sctrans>, fillcolor="#ffffff"] ;
384 -> 386 ;
387 [label=<gini = 0.0<br/>samples = 1<br/>value = [0, 1, 0]<br/>class = sctrans>, fillcolor="#39e581"] ;
386 -> 387 ;
388 [label=<gini = 0.0<br/>samples = 1<br/>value = [0, 0, 1]<br/>class = instituto de previdencia e assistencia social>, fillcolor="#8139e5"] ;
386 -> 388 ;
389 [label=<gini = 0.0<br/>samples = 2<br/>value = [0, 2, 0]<br/>class = sctrans>, fillcolor="#39e581"] ;
383 -> 389 ;
390 [label=<gini = 0.0<br/>samples = 30<br/>value = [0, 30, 0]<br/>class = sctrans>, fillcolor="#39e581"] ;
378 -> 390 ;
391 [label=<VALOR_ARRECADADO &le; 282.015<br/>gini = 0.221<br/>samples = 517<br/>value = [3, 452, 62]<br/>class = sctrans>, fillcolor="#55e993"] ;
377 -> 391 ;
392 [label=<ANO &le; 2017.5<br/>gini = 0.48<br/>samples = 10<br/>value = [0, 6, 4]<br/>class = sctrans>, fillcolor="#bdf6d5"] ;
391 -> 392 ;
393 [label=<ANO &le; 2016.5<br/>gini = 0.444<br/>samples = 6<br/>value = [0, 2, 4]<br/>class = instituto de previdencia e assistencia social>, fillcolor="#c09cf2"] ;
392 -> 393 ;
394 [label=<VALOR_ARRECADADO &le; 280.53<br/>gini = 0.48<br/>samples = 5<br/>value = [0, 2, 3]<br/>class = instituto de previdencia e assistencia social>, fillcolor="#d5bdf6"] ;
393 -> 394 ;
395 [label=<VALOR_ARRECADADO &le; 278.7<br/>gini = 0.375<br/>samples = 4<br/>value = [0, 1, 3]<br/>class = instituto de previdencia e assistencia social>, fillcolor="#ab7bee"] ;
394 -> 395 ;
396 [label=<ANO &le; 2015.5<br/>gini = 0.5<br/>samples = 2<br/>value = [0, 1, 1]<br/>class = sctrans>, fillcolor="#ffffff"] ;
395 -> 396 ;
397 [label=<gini = 0.0<br/>samples = 1<br/>value = [0, 1, 0]<br/>class = sctrans>, fillcolor="#39e581"] ;
396 -> 397 ;
398 [label=<gini = 0.0<br/>samples = 1<br/>value = [0, 0, 1]<br/>class = instituto de previdencia e assistencia social>, fillcolor="#8139e5"] ;
396 -> 398 ;
399 [label=<gini = 0.0<br/>samples = 2<br/>value = [0, 0, 2]<br/>class = instituto de previdencia e assistencia social>, fillcolor="#8139e5"] ;
395 -> 399 ;
400 [label=<gini = 0.0<br/>samples = 1<br/>value = [0, 1, 0]<br/>class = sctrans>, fillcolor="#39e581"] ;
394 -> 400 ;
401 [label=<gini = 0.0<br/>samples = 1<br/>value = [0, 0, 1]<br/>class = instituto de previdencia e assistencia social>, fillcolor="#8139e5"] ;
393 -> 401 ;
402 [label=<gini = 0.0<br/>samples = 4<br/>value = [0, 4, 0]<br/>class = sctrans>, fillcolor="#39e581"] ;
392 -> 402 ;
403 [label=<VALOR_ARRECADADO &le; 303.1<br/>gini = 0.213<br/>samples = 507<br/>value = [3, 446, 58]<br/>class = sctrans>, fillcolor="#54e992"] ;
391 -> 403 ;
404 [label=<ANO &le; 2021.5<br/>gini = 0.075<br/>samples = 51<br/>value = [0, 49, 2]<br/>class = sctrans>, fillcolor="#41e686"] ;
403 -> 404 ;
405 [label=<ANO &le; 2015.5<br/>gini = 0.043<br/>samples = 45<br/>value = [0, 44, 1]<br/>class = sctrans>, fillcolor="#3de684"] ;
404 -> 405 ;
406 [label=<VALOR_ARRECADADO &le; 296.35<br/>gini = 0.124<br/>samples = 15<br/>value = [0, 14, 1]<br/>class = sctrans>, fillcolor="#47e78a"] ;
405 -> 406 ;
407 [label=<VALOR_ARRECADADO &le; 292.975<br/>gini = 0.444<br/>samples = 3<br/>value = [0, 2, 1]<br/>class = sctrans>, fillcolor="#9cf2c0"] ;
406 -> 407 ;
408 [label=<gini = 0.0<br/>samples = 2<br/>value = [0, 2, 0]<br/>class = sctrans>, fillcolor="#39e581"] ;
407 -> 408 ;
409 [label=<gini = 0.0<br/>samples = 1<br/>value = [0, 0, 1]<br/>class = instituto de previdencia e assistencia social>, fillcolor="#8139e5"] ;
407 -> 409 ;
410 [label=<gini = 0.0<br/>samples = 12<br/>value = [0, 12, 0]<br/>class = sctrans>, fillcolor="#39e581"] ;
406 -> 410 ;
411 [label=<gini = 0.0<br/>samples = 30<br/>value = [0, 30, 0]<br/>class = sctrans>, fillcolor="#39e581"] ;
405 -> 411 ;
412 [label=<VALOR_ARRECADADO &le; 288.31<br/>gini = 0.278<br/>samples = 6<br/>value = [0, 5, 1]<br/>class = sctrans>, fillcolor="#61ea9a"] ;
404 -> 412 ;
413 [label=<VALOR_ARRECADADO &le; 286.085<br/>gini = 0.444<br/>samples = 3<br/>value = [0, 2, 1]<br/>class = sctrans>, fillcolor="#9cf2c0"] ;
412 -> 413 ;
414 [label=<gini = 0.0<br/>samples = 2<br/>value = [0, 2, 0]<br/>class = sctrans>, fillcolor="#39e581"] ;
413 -> 414 ;
415 [label=<gini = 0.0<br/>samples = 1<br/>value = [0, 0, 1]<br/>class = instituto de previdencia e assistencia social>, fillcolor="#8139e5"] ;
413 -> 415 ;
416 [label=<gini = 0.0<br/>samples = 3<br/>value = [0, 3, 0]<br/>class = sctrans>, fillcolor="#39e581"] ;
412 -> 416 ;
417 [label=<VALOR_ARRECADADO &le; 303.65<br/>gini = 0.227<br/>samples = 456<br/>value = [3, 397, 56]<br/>class = sctrans>, fillcolor="#56e994"] ;
403 -> 417 ;
418 [label=<gini = 0.0<br/>samples = 1<br/>value = [0, 0, 1]<br/>class = instituto de previdencia e assistencia social>, fillcolor="#8139e5"] ;
417 -> 418 ;
419 [label=<ANO &le; 2014.5<br/>gini = 0.224<br/>samples = 455<br/>value = [3, 397, 55]<br/>class = sctrans>, fillcolor="#56e993"] ;
417 -> 419 ;
420 [label=<VALOR_ARRECADADO &le; 393.54<br/>gini = 0.302<br/>samples = 54<br/>value = [0, 44, 10]<br/>class = sctrans>, fillcolor="#66eb9e"] ;
419 -> 420 ;
421 [label=<VALOR_ARRECADADO &le; 362.0<br/>gini = 0.444<br/>samples = 18<br/>value = [0, 12, 6]<br/>class = sctrans>, fillcolor="#9cf2c0"] ;
420 -> 421 ;
422 [label=<VALOR_ARRECADADO &le; 345.635<br/>gini = 0.298<br/>samples = 11<br/>value = [0, 9, 2]<br/>class = sctrans>, fillcolor="#65eb9d"] ;
421 -> 422 ;
423 [label=<VALOR_ARRECADADO &le; 339.11<br/>gini = 0.375<br/>samples = 8<br/>value = [0, 6, 2]<br/>class = sctrans>, fillcolor="#7beeab"] ;
422 -> 423 ;
424 [label=<VALOR_ARRECADADO &le; 323.0<br/>gini = 0.245<br/>samples = 7<br/>value = [0, 6, 1]<br/>class = sctrans>, fillcolor="#5ae996"] ;
423 -> 424 ;
425 [label=<VALOR_ARRECADADO &le; 319.14<br/>gini = 0.444<br/>samples = 3<br/>value = [0, 2, 1]<br/>class = sctrans>, fillcolor="#9cf2c0"] ;
424 -> 425 ;
426 [label=<gini = 0.0<br/>samples = 2<br/>value = [0, 2, 0]<br/>class = sctrans>, fillcolor="#39e581"] ;
425 -> 426 ;
427 [label=<gini = 0.0<br/>samples = 1<br/>value = [0, 0, 1]<br/>class = instituto de previdencia e assistencia social>, fillcolor="#8139e5"] ;
425 -> 427 ;
428 [label=<gini = 0.0<br/>samples = 4<br/>value = [0, 4, 0]<br/>class = sctrans>, fillcolor="#39e581"] ;
424 -> 428 ;
429 [label=<gini = 0.0<br/>samples = 1<br/>value = [0, 0, 1]<br/>class = instituto de previdencia e assistencia social>, fillcolor="#8139e5"] ;
423 -> 429 ;
430 [label=<gini = 0.0<br/>samples = 3<br/>value = [0, 3, 0]<br/>class = sctrans>, fillcolor="#39e581"] ;
422 -> 430 ;
431 [label=<VALOR_ARRECADADO &le; 367.08<br/>gini = 0.49<br/>samples = 7<br/>value = [0, 3, 4]<br/>class = instituto de previdencia e assistencia social>, fillcolor="#e0cef8"] ;
421 -> 431 ;
432 [label=<gini = 0.0<br/>samples = 1<br/>value = [0, 0, 1]<br/>class = instituto de previdencia e assistencia social>, fillcolor="#8139e5"] ;
431 -> 432 ;
433 [label=<VALOR_ARRECADADO &le; 372.155<br/>gini = 0.5<br/>samples = 6<br/>value = [0, 3, 3]<br/>class = sctrans>, fillcolor="#ffffff"] ;
431 -> 433 ;
434 [label=<gini = 0.0<br/>samples = 1<br/>value = [0, 1, 0]<br/>class = sctrans>, fillcolor="#39e581"] ;
433 -> 434 ;
435 [label=<VALOR_ARRECADADO &le; 375.725<br/>gini = 0.48<br/>samples = 5<br/>value = [0, 2, 3]<br/>class = instituto de previdencia e assistencia social>, fillcolor="#d5bdf6"] ;
433 -> 435 ;
436 [label=<gini = 0.0<br/>samples = 1<br/>value = [0, 0, 1]<br/>class = instituto de previdencia e assistencia social>, fillcolor="#8139e5"] ;
435 -> 436 ;
437 [label=<VALOR_ARRECADADO &le; 377.775<br/>gini = 0.5<br/>samples = 4<br/>value = [0, 2, 2]<br/>class = sctrans>, fillcolor="#ffffff"] ;
435 -> 437 ;
438 [label=<gini = 0.0<br/>samples = 1<br/>value = [0, 1, 0]<br/>class = sctrans>, fillcolor="#39e581"] ;
437 -> 438 ;
439 [label=<VALOR_ARRECADADO &le; 378.895<br/>gini = 0.444<br/>samples = 3<br/>value = [0, 1, 2]<br/>class = instituto de previdencia e assistencia social>, fillcolor="#c09cf2"] ;
437 -> 439 ;
440 [label=<gini = 0.0<br/>samples = 1<br/>value = [0, 0, 1]<br/>class = instituto de previdencia e assistencia social>, fillcolor="#8139e5"] ;
439 -> 440 ;
441 [label=<VALOR_ARRECADADO &le; 383.6<br/>gini = 0.5<br/>samples = 2<br/>value = [0, 1, 1]<br/>class = sctrans>, fillcolor="#ffffff"] ;
439 -> 441 ;
442 [label=<gini = 0.0<br/>samples = 1<br/>value = [0, 1, 0]<br/>class = sctrans>, fillcolor="#39e581"] ;
441 -> 442 ;
443 [label=<gini = 0.0<br/>samples = 1<br/>value = [0, 0, 1]<br/>class = instituto de previdencia e assistencia social>, fillcolor="#8139e5"] ;
441 -> 443 ;
444 [label=<VALOR_ARRECADADO &le; 514.45<br/>gini = 0.198<br/>samples = 36<br/>value = [0, 32, 4]<br/>class = sctrans>, fillcolor="#52e891"] ;
420 -> 444 ;
445 [label=<VALOR_ARRECADADO &le; 495.095<br/>gini = 0.287<br/>samples = 23<br/>value = [0, 19, 4]<br/>class = sctrans>, fillcolor="#63ea9c"] ;
444 -> 445 ;
446 [label=<VALOR_ARRECADADO &le; 444.085<br/>gini = 0.18<br/>samples = 20<br/>value = [0, 18, 2]<br/>class = sctrans>, fillcolor="#4fe88f"] ;
445 -> 446 ;
447 [label=<VALOR_ARRECADADO &le; 433.085<br/>gini = 0.278<br/>samples = 12<br/>value = [0, 10, 2]<br/>class = sctrans>, fillcolor="#61ea9a"] ;
446 -> 447 ;
448 [label=<VALOR_ARRECADADO &le; 413.995<br/>gini = 0.165<br/>samples = 11<br/>value = [0, 10, 1]<br/>class = sctrans>, fillcolor="#4de88e"] ;
447 -> 448 ;
449 [label=<gini = 0.0<br/>samples = 7<br/>value = [0, 7, 0]<br/>class = sctrans>, fillcolor="#39e581"] ;
448 -> 449 ;
450 [label=<VALOR_ARRECADADO &le; 417.62<br/>gini = 0.375<br/>samples = 4<br/>value = [0, 3, 1]<br/>class = sctrans>, fillcolor="#7beeab"] ;
448 -> 450 ;
451 [label=<gini = 0.0<br/>samples = 1<br/>value = [0, 0, 1]<br/>class = instituto de previdencia e assistencia social>, fillcolor="#8139e5"] ;
450 -> 451 ;
452 [label=<gini = 0.0<br/>samples = 3<br/>value = [0, 3, 0]<br/>class = sctrans>, fillcolor="#39e581"] ;
450 -> 452 ;
453 [label=<gini = 0.0<br/>samples = 1<br/>value = [0, 0, 1]<br/>class = instituto de previdencia e assistencia social>, fillcolor="#8139e5"] ;
447 -> 453 ;
454 [label=<gini = 0.0<br/>samples = 8<br/>value = [0, 8, 0]<br/>class = sctrans>, fillcolor="#39e581"] ;
446 -> 454 ;
455 [label=<VALOR_ARRECADADO &le; 507.595<br/>gini = 0.444<br/>samples = 3<br/>value = [0, 1, 2]<br/>class = instituto de previdencia e assistencia social>, fillcolor="#c09cf2"] ;
445 -> 455 ;
456 [label=<gini = 0.0<br/>samples = 1<br/>value = [0, 0, 1]<br/>class = instituto de previdencia e assistencia social>, fillcolor="#8139e5"] ;
455 -> 456 ;
457 [label=<VALOR_ARRECADADO &le; 510.51<br/>gini = 0.5<br/>samples = 2<br/>value = [0, 1, 1]<br/>class = sctrans>, fillcolor="#ffffff"] ;
455 -> 457 ;
458 [label=<gini = 0.0<br/>samples = 1<br/>value = [0, 1, 0]<br/>class = sctrans>, fillcolor="#39e581"] ;
457 -> 458 ;
459 [label=<gini = 0.0<br/>samples = 1<br/>value = [0, 0, 1]<br/>class = instituto de previdencia e assistencia social>, fillcolor="#8139e5"] ;
457 -> 459 ;
460 [label=<gini = 0.0<br/>samples = 13<br/>value = [0, 13, 0]<br/>class = sctrans>, fillcolor="#39e581"] ;
444 -> 460 ;
461 [label=<VALOR_ARRECADADO &le; 557.76<br/>gini = 0.212<br/>samples = 401<br/>value = [3, 353, 45]<br/>class = sctrans>, fillcolor="#54e992"] ;
419 -> 461 ;
462 [label=<ANO &le; 2018.5<br/>gini = 0.188<br/>samples = 289<br/>value = [3, 259, 27]<br/>class = sctrans>, fillcolor="#50e88f"] ;
461 -> 462 ;
463 [label=<VALOR_ARRECADADO &le; 469.55<br/>gini = 0.255<br/>samples = 164<br/>value = [3, 140, 21]<br/>class = sctrans>, fillcolor="#5ae996"] ;
462 -> 463 ;
464 [label=<VALOR_ARRECADADO &le; 468.49<br/>gini = 0.311<br/>samples = 112<br/>value = [2, 91, 19]<br/>class = sctrans>, fillcolor="#66eb9d"] ;
463 -> 464 ;
465 [label=<ANO &le; 2015.5<br/>gini = 0.301<br/>samples = 111<br/>value = [2, 91, 18]<br/>class = sctrans>, fillcolor="#64eb9c"] ;
464 -> 465 ;
466 [label=<VALOR_ARRECADADO &le; 371.495<br/>gini = 0.133<br/>samples = 28<br/>value = [0, 26, 2]<br/>class = sctrans>, fillcolor="#48e78b"] ;
465 -> 466 ;
467 [label=<VALOR_ARRECADADO &le; 352.235<br/>gini = 0.298<br/>samples = 11<br/>value = [0, 9, 2]<br/>class = sctrans>, fillcolor="#65eb9d"] ;
466 -> 467 ;
468 [label=<gini = 0.0<br/>samples = 8<br/>value = [0, 8, 0]<br/>class = sctrans>, fillcolor="#39e581"] ;
467 -> 468 ;
469 [label=<VALOR_ARRECADADO &le; 360.635<br/>gini = 0.444<br/>samples = 3<br/>value = [0, 1, 2]<br/>class = instituto de previdencia e assistencia social>, fillcolor="#c09cf2"] ;
467 -> 469 ;
470 [label=<gini = 0.0<br/>samples = 1<br/>value = [0, 0, 1]<br/>class = instituto de previdencia e assistencia social>, fillcolor="#8139e5"] ;
469 -> 470 ;
471 [label=<VALOR_ARRECADADO &le; 370.23<br/>gini = 0.5<br/>samples = 2<br/>value = [0, 1, 1]<br/>class = sctrans>, fillcolor="#ffffff"] ;
469 -> 471 ;
472 [label=<gini = 0.0<br/>samples = 1<br/>value = [0, 1, 0]<br/>class = sctrans>, fillcolor="#39e581"] ;
471 -> 472 ;
473 [label=<gini = 0.0<br/>samples = 1<br/>value = [0, 0, 1]<br/>class = instituto de previdencia e assistencia social>, fillcolor="#8139e5"] ;
471 -> 473 ;
474 [label=<gini = 0.0<br/>samples = 17<br/>value = [0, 17, 0]<br/>class = sctrans>, fillcolor="#39e581"] ;
466 -> 474 ;
475 [label=<VALOR_ARRECADADO &le; 373.74<br/>gini = 0.349<br/>samples = 83<br/>value = [2, 65, 16]<br/>class = sctrans>, fillcolor="#6eeca3"] ;
465 -> 475 ;
476 [label=<VALOR_ARRECADADO &le; 335.215<br/>gini = 0.237<br/>samples = 38<br/>value = [2, 33, 3]<br/>class = sctrans>, fillcolor="#55e993"] ;
475 -> 476 ;
477 [label=<VALOR_ARRECADADO &le; 333.265<br/>gini = 0.427<br/>samples = 15<br/>value = [2, 11, 2]<br/>class = sctrans>, fillcolor="#76eda8"] ;
476 -> 477 ;
478 [label=<VALOR_ARRECADADO &le; 319.23<br/>gini = 0.272<br/>samples = 13<br/>value = [1, 11, 1]<br/>class = sctrans>, fillcolor="#5ae996"] ;
477 -> 478 ;
479 [label=<VALOR_ARRECADADO &le; 316.925<br/>gini = 0.375<br/>samples = 4<br/>value = [1, 3, 0]<br/>class = sctrans>, fillcolor="#7beeab"] ;
478 -> 479 ;
480 [label=<gini = 0.0<br/>samples = 3<br/>value = [0, 3, 0]<br/>class = sctrans>, fillcolor="#39e581"] ;
479 -> 480 ;
481 [label=<gini = 0.0<br/>samples = 1<br/>value = [1, 0, 0]<br/>class = prefeitura municipal>, fillcolor="#e58139"] ;
479 -> 481 ;
482 [label=<ANO &le; 2017.5<br/>gini = 0.198<br/>samples = 9<br/>value = [0, 8, 1]<br/>class = sctrans>, fillcolor="#52e891"] ;
478 -> 482 ;
483 [label=<gini = 0.0<br/>samples = 5<br/>value = [0, 5, 0]<br/>class = sctrans>, fillcolor="#39e581"] ;
482 -> 483 ;
484 [label=<VALOR_ARRECADADO &le; 329.595<br/>gini = 0.375<br/>samples = 4<br/>value = [0, 3, 1]<br/>class = sctrans>, fillcolor="#7beeab"] ;
482 -> 484 ;
485 [label=<VALOR_ARRECADADO &le; 328.35<br/>gini = 0.5<br/>samples = 2<br/>value = [0, 1, 1]<br/>class = sctrans>, fillcolor="#ffffff"] ;
484 -> 485 ;
486 [label=<gini = 0.0<br/>samples = 1<br/>value = [0, 1, 0]<br/>class = sctrans>, fillcolor="#39e581"] ;
485 -> 486 ;
487 [label=<gini = 0.0<br/>samples = 1<br/>value = [0, 0, 1]<br/>class = instituto de previdencia e assistencia social>, fillcolor="#8139e5"] ;
485 -> 487 ;
488 [label=<gini = 0.0<br/>samples = 2<br/>value = [0, 2, 0]<br/>class = sctrans>, fillcolor="#39e581"] ;
484 -> 488 ;
489 [label=<VALOR_ARRECADADO &le; 334.47<br/>gini = 0.5<br/>samples = 2<br/>value = [1, 0, 1]<br/>class = prefeitura municipal>, fillcolor="#ffffff"] ;
477 -> 489 ;
490 [label=<gini = 0.0<br/>samples = 1<br/>value = [1, 0, 0]<br/>class = prefeitura municipal>, fillcolor="#e58139"] ;
489 -> 490 ;
491 [label=<gini = 0.0<br/>samples = 1<br/>value = [0, 0, 1]<br/>class = instituto de previdencia e assistencia social>, fillcolor="#8139e5"] ;
489 -> 491 ;
492 [label=<VALOR_ARRECADADO &le; 358.125<br/>gini = 0.083<br/>samples = 23<br/>value = [0, 22, 1]<br/>class = sctrans>, fillcolor="#42e687"] ;
476 -> 492 ;
493 [label=<gini = 0.0<br/>samples = 11<br/>value = [0, 11, 0]<br/>class = sctrans>, fillcolor="#39e581"] ;
492 -> 493 ;
494 [label=<VALOR_ARRECADADO &le; 358.435<br/>gini = 0.153<br/>samples = 12<br/>value = [0, 11, 1]<br/>class = sctrans>, fillcolor="#4be78c"] ;
492 -> 494 ;
495 [label=<gini = 0.0<br/>samples = 1<br/>value = [0, 0, 1]<br/>class = instituto de previdencia e assistencia social>, fillcolor="#8139e5"] ;
494 -> 495 ;
496 [label=<gini = 0.0<br/>samples = 11<br/>value = [0, 11, 0]<br/>class = sctrans>, fillcolor="#39e581"] ;
494 -> 496 ;
497 [label=<VALOR_ARRECADADO &le; 435.725<br/>gini = 0.411<br/>samples = 45<br/>value = [0, 32, 13]<br/>class = sctrans>, fillcolor="#89f0b4"] ;
475 -> 497 ;
498 [label=<VALOR_ARRECADADO &le; 434.055<br/>gini = 0.457<br/>samples = 34<br/>value = [0, 22, 12]<br/>class = sctrans>, fillcolor="#a5f3c6"] ;
497 -> 498 ;
499 [label=<VALOR_ARRECADADO &le; 422.215<br/>gini = 0.43<br/>samples = 32<br/>value = [0, 22, 10]<br/>class = sctrans>, fillcolor="#93f1ba"] ;
498 -> 499 ;
500 [label=<ANO &le; 2017.5<br/>gini = 0.473<br/>samples = 26<br/>value = [0, 16, 10]<br/>class = sctrans>, fillcolor="#b5f5d0"] ;
499 -> 500 ;
501 [label=<ANO &le; 2016.5<br/>gini = 0.42<br/>samples = 20<br/>value = [0, 14, 6]<br/>class = sctrans>, fillcolor="#8ef0b7"] ;
500 -> 501 ;
502 [label=<VALOR_ARRECADADO &le; 392.655<br/>gini = 0.496<br/>samples = 11<br/>value = [0, 6, 5]<br/>class = sctrans>, fillcolor="#defbea"] ;
501 -> 502 ;
503 [label=<VALOR_ARRECADADO &le; 384.635<br/>gini = 0.375<br/>samples = 4<br/>value = [0, 1, 3]<br/>class = instituto de previdencia e assistencia social>, fillcolor="#ab7bee"] ;
502 -> 503 ;
504 [label=<gini = 0.0<br/>samples = 1<br/>value = [0, 1, 0]<br/>class = sctrans>, fillcolor="#39e581"] ;
503 -> 504 ;
505 [label=<gini = 0.0<br/>samples = 3<br/>value = [0, 0, 3]<br/>class = instituto de previdencia e assistencia social>, fillcolor="#8139e5"] ;
503 -> 505 ;
506 [label=<VALOR_ARRECADADO &le; 412.465<br/>gini = 0.408<br/>samples = 7<br/>value = [0, 5, 2]<br/>class = sctrans>, fillcolor="#88efb3"] ;
502 -> 506 ;
507 [label=<VALOR_ARRECADADO &le; 396.53<br/>gini = 0.278<br/>samples = 6<br/>value = [0, 5, 1]<br/>class = sctrans>, fillcolor="#61ea9a"] ;
506 -> 507 ;
508 [label=<gini = 0.0<br/>samples = 3<br/>value = [0, 3, 0]<br/>class = sctrans>, fillcolor="#39e581"] ;
507 -> 508 ;
509 [label=<VALOR_ARRECADADO &le; 398.53<br/>gini = 0.444<br/>samples = 3<br/>value = [0, 2, 1]<br/>class = sctrans>, fillcolor="#9cf2c0"] ;
507 -> 509 ;
510 [label=<gini = 0.0<br/>samples = 1<br/>value = [0, 0, 1]<br/>class = instituto de previdencia e assistencia social>, fillcolor="#8139e5"] ;
509 -> 510 ;
511 [label=<gini = 0.0<br/>samples = 2<br/>value = [0, 2, 0]<br/>class = sctrans>, fillcolor="#39e581"] ;
509 -> 511 ;
512 [label=<gini = 0.0<br/>samples = 1<br/>value = [0, 0, 1]<br/>class = instituto de previdencia e assistencia social>, fillcolor="#8139e5"] ;
506 -> 512 ;
513 [label=<VALOR_ARRECADADO &le; 400.72<br/>gini = 0.198<br/>samples = 9<br/>value = [0, 8, 1]<br/>class = sctrans>, fillcolor="#52e891"] ;
501 -> 513 ;
514 [label=<gini = 0.0<br/>samples = 6<br/>value = [0, 6, 0]<br/>class = sctrans>, fillcolor="#39e581"] ;
513 -> 514 ;
515 [label=<VALOR_ARRECADADO &le; 402.97<br/>gini = 0.444<br/>samples = 3<br/>value = [0, 2, 1]<br/>class = sctrans>, fillcolor="#9cf2c0"] ;
513 -> 515 ;
516 [label=<gini = 0.0<br/>samples = 1<br/>value = [0, 0, 1]<br/>class = instituto de previdencia e assistencia social>, fillcolor="#8139e5"] ;
515 -> 516 ;
517 [label=<gini = 0.0<br/>samples = 2<br/>value = [0, 2, 0]<br/>class = sctrans>, fillcolor="#39e581"] ;
515 -> 517 ;
518 [label=<VALOR_ARRECADADO &le; 412.6<br/>gini = 0.444<br/>samples = 6<br/>value = [0, 2, 4]<br/>class = instituto de previdencia e assistencia social>, fillcolor="#c09cf2"] ;
500 -> 518 ;
519 [label=<VALOR_ARRECADADO &le; 384.92<br/>gini = 0.32<br/>samples = 5<br/>value = [0, 1, 4]<br/>class = instituto de previdencia e assistencia social>, fillcolor="#a06aec"] ;
518 -> 519 ;
520 [label=<gini = 0.0<br/>samples = 2<br/>value = [0, 0, 2]<br/>class = instituto de previdencia e assistencia social>, fillcolor="#8139e5"] ;
519 -> 520 ;
521 [label=<VALOR_ARRECADADO &le; 396.52<br/>gini = 0.444<br/>samples = 3<br/>value = [0, 1, 2]<br/>class = instituto de previdencia e assistencia social>, fillcolor="#c09cf2"] ;
519 -> 521 ;
522 [label=<gini = 0.0<br/>samples = 1<br/>value = [0, 1, 0]<br/>class = sctrans>, fillcolor="#39e581"] ;
521 -> 522 ;
523 [label=<gini = 0.0<br/>samples = 2<br/>value = [0, 0, 2]<br/>class = instituto de previdencia e assistencia social>, fillcolor="#8139e5"] ;
521 -> 523 ;
524 [label=<gini = 0.0<br/>samples = 1<br/>value = [0, 1, 0]<br/>class = sctrans>, fillcolor="#39e581"] ;
518 -> 524 ;
525 [label=<gini = 0.0<br/>samples = 6<br/>value = [0, 6, 0]<br/>class = sctrans>, fillcolor="#39e581"] ;
499 -> 525 ;
526 [label=<gini = 0.0<br/>samples = 2<br/>value = [0, 0, 2]<br/>class = instituto de previdencia e assistencia social>, fillcolor="#8139e5"] ;
498 -> 526 ;
527 [label=<VALOR_ARRECADADO &le; 446.025<br/>gini = 0.165<br/>samples = 11<br/>value = [0, 10, 1]<br/>class = sctrans>, fillcolor="#4de88e"] ;
497 -> 527 ;
528 [label=<gini = 0.0<br/>samples = 6<br/>value = [0, 6, 0]<br/>class = sctrans>, fillcolor="#39e581"] ;
527 -> 528 ;
529 [label=<VALOR_ARRECADADO &le; 455.38<br/>gini = 0.32<br/>samples = 5<br/>value = [0, 4, 1]<br/>class = sctrans>, fillcolor="#6aeca0"] ;
527 -> 529 ;
530 [label=<gini = 0.0<br/>samples = 1<br/>value = [0, 0, 1]<br/>class = instituto de previdencia e assistencia social>, fillcolor="#8139e5"] ;
529 -> 530 ;
531 [label=<gini = 0.0<br/>samples = 4<br/>value = [0, 4, 0]<br/>class = sctrans>, fillcolor="#39e581"] ;
529 -> 531 ;
532 [label=<gini = 0.0<br/>samples = 1<br/>value = [0, 0, 1]<br/>class = instituto de previdencia e assistencia social>, fillcolor="#8139e5"] ;
464 -> 532 ;
533 [label=<ANO &le; 2015.5<br/>gini = 0.11<br/>samples = 52<br/>value = [1, 49, 2]<br/>class = sctrans>, fillcolor="#45e789"] ;
463 -> 533 ;
534 [label=<VALOR_ARRECADADO &le; 518.6<br/>gini = 0.278<br/>samples = 12<br/>value = [0, 10, 2]<br/>class = sctrans>, fillcolor="#61ea9a"] ;
533 -> 534 ;
535 [label=<VALOR_ARRECADADO &le; 513.06<br/>gini = 0.408<br/>samples = 7<br/>value = [0, 5, 2]<br/>class = sctrans>, fillcolor="#88efb3"] ;
534 -> 535 ;
536 [label=<VALOR_ARRECADADO &le; 502.03<br/>gini = 0.278<br/>samples = 6<br/>value = [0, 5, 1]<br/>class = sctrans>, fillcolor="#61ea9a"] ;
535 -> 536 ;
537 [label=<VALOR_ARRECADADO &le; 500.315<br/>gini = 0.444<br/>samples = 3<br/>value = [0, 2, 1]<br/>class = sctrans>, fillcolor="#9cf2c0"] ;
536 -> 537 ;
538 [label=<gini = 0.0<br/>samples = 2<br/>value = [0, 2, 0]<br/>class = sctrans>, fillcolor="#39e581"] ;
537 -> 538 ;
539 [label=<gini = 0.0<br/>samples = 1<br/>value = [0, 0, 1]<br/>class = instituto de previdencia e assistencia social>, fillcolor="#8139e5"] ;
537 -> 539 ;
540 [label=<gini = 0.0<br/>samples = 3<br/>value = [0, 3, 0]<br/>class = sctrans>, fillcolor="#39e581"] ;
536 -> 540 ;
541 [label=<gini = 0.0<br/>samples = 1<br/>value = [0, 0, 1]<br/>class = instituto de previdencia e assistencia social>, fillcolor="#8139e5"] ;
535 -> 541 ;
542 [label=<gini = 0.0<br/>samples = 5<br/>value = [0, 5, 0]<br/>class = sctrans>, fillcolor="#39e581"] ;
534 -> 542 ;
543 [label=<ANO &le; 2017.5<br/>gini = 0.049<br/>samples = 40<br/>value = [1, 39, 0]<br/>class = sctrans>, fillcolor="#3ee684"] ;
533 -> 543 ;
544 [label=<gini = 0.0<br/>samples = 27<br/>value = [0, 27, 0]<br/>class = sctrans>, fillcolor="#39e581"] ;
543 -> 544 ;
545 [label=<VALOR_ARRECADADO &le; 495.675<br/>gini = 0.142<br/>samples = 13<br/>value = [1, 12, 0]<br/>class = sctrans>, fillcolor="#49e78c"] ;
543 -> 545 ;
546 [label=<VALOR_ARRECADADO &le; 489.73<br/>gini = 0.32<br/>samples = 5<br/>value = [1, 4, 0]<br/>class = sctrans>, fillcolor="#6aeca0"] ;
545 -> 546 ;
547 [label=<gini = 0.0<br/>samples = 4<br/>value = [0, 4, 0]<br/>class = sctrans>, fillcolor="#39e581"] ;
546 -> 547 ;
548 [label=<gini = 0.0<br/>samples = 1<br/>value = [1, 0, 0]<br/>class = prefeitura municipal>, fillcolor="#e58139"] ;
546 -> 548 ;
549 [label=<gini = 0.0<br/>samples = 8<br/>value = [0, 8, 0]<br/>class = sctrans>, fillcolor="#39e581"] ;
545 -> 549 ;
550 [label=<VALOR_ARRECADADO &le; 308.115<br/>gini = 0.091<br/>samples = 125<br/>value = [0, 119, 6]<br/>class = sctrans>, fillcolor="#43e687"] ;
462 -> 550 ;
551 [label=<VALOR_ARRECADADO &le; 306.77<br/>gini = 0.444<br/>samples = 3<br/>value = [0, 2, 1]<br/>class = sctrans>, fillcolor="#9cf2c0"] ;
550 -> 551 ;
552 [label=<gini = 0.0<br/>samples = 2<br/>value = [0, 2, 0]<br/>class = sctrans>, fillcolor="#39e581"] ;
551 -> 552 ;
553 [label=<gini = 0.0<br/>samples = 1<br/>value = [0, 0, 1]<br/>class = instituto de previdencia e assistencia social>, fillcolor="#8139e5"] ;
551 -> 553 ;
554 [label=<VALOR_ARRECADADO &le; 471.175<br/>gini = 0.079<br/>samples = 122<br/>value = [0, 117, 5]<br/>class = sctrans>, fillcolor="#41e686"] ;
550 -> 554 ;
555 [label=<VALOR_ARRECADADO &le; 468.535<br/>gini = 0.103<br/>samples = 92<br/>value = [0, 87, 5]<br/>class = sctrans>, fillcolor="#44e688"] ;
554 -> 555 ;
556 [label=<VALOR_ARRECADADO &le; 392.85<br/>gini = 0.084<br/>samples = 91<br/>value = [0, 87, 4]<br/>class = sctrans>, fillcolor="#42e687"] ;
555 -> 556 ;
557 [label=<VALOR_ARRECADADO &le; 347.1<br/>gini = 0.034<br/>samples = 58<br/>value = [0, 57, 1]<br/>class = sctrans>, fillcolor="#3ce583"] ;
556 -> 557 ;
558 [label=<gini = 0.0<br/>samples = 29<br/>value = [0, 29, 0]<br/>class = sctrans>, fillcolor="#39e581"] ;
557 -> 558 ;
559 [label=<VALOR_ARRECADADO &le; 348.555<br/>gini = 0.067<br/>samples = 29<br/>value = [0, 28, 1]<br/>class = sctrans>, fillcolor="#40e686"] ;
557 -> 559 ;
560 [label=<gini = 0.0<br/>samples = 1<br/>value = [0, 0, 1]<br/>class = instituto de previdencia e assistencia social>, fillcolor="#8139e5"] ;
559 -> 560 ;
561 [label=<gini = 0.0<br/>samples = 28<br/>value = [0, 28, 0]<br/>class = sctrans>, fillcolor="#39e581"] ;
559 -> 561 ;
562 [label=<VALOR_ARRECADADO &le; 393.79<br/>gini = 0.165<br/>samples = 33<br/>value = [0, 30, 3]<br/>class = sctrans>, fillcolor="#4de88e"] ;
556 -> 562 ;
563 [label=<gini = 0.0<br/>samples = 1<br/>value = [0, 0, 1]<br/>class = instituto de previdencia e assistencia social>, fillcolor="#8139e5"] ;
562 -> 563 ;
564 [label=<VALOR_ARRECADADO &le; 399.715<br/>gini = 0.117<br/>samples = 32<br/>value = [0, 30, 2]<br/>class = sctrans>, fillcolor="#46e789"] ;
562 -> 564 ;
565 [label=<VALOR_ARRECADADO &le; 398.865<br/>gini = 0.444<br/>samples = 3<br/>value = [0, 2, 1]<br/>class = sctrans>, fillcolor="#9cf2c0"] ;
564 -> 565 ;
566 [label=<gini = 0.0<br/>samples = 2<br/>value = [0, 2, 0]<br/>class = sctrans>, fillcolor="#39e581"] ;
565 -> 566 ;
567 [label=<gini = 0.0<br/>samples = 1<br/>value = [0, 0, 1]<br/>class = instituto de previdencia e assistencia social>, fillcolor="#8139e5"] ;
565 -> 567 ;
568 [label=<VALOR_ARRECADADO &le; 444.27<br/>gini = 0.067<br/>samples = 29<br/>value = [0, 28, 1]<br/>class = sctrans>, fillcolor="#40e686"] ;
564 -> 568 ;
569 [label=<gini = 0.0<br/>samples = 22<br/>value = [0, 22, 0]<br/>class = sctrans>, fillcolor="#39e581"] ;
568 -> 569 ;
570 [label=<VALOR_ARRECADADO &le; 446.22<br/>gini = 0.245<br/>samples = 7<br/>value = [0, 6, 1]<br/>class = sctrans>, fillcolor="#5ae996"] ;
568 -> 570 ;
571 [label=<gini = 0.0<br/>samples = 1<br/>value = [0, 0, 1]<br/>class = instituto de previdencia e assistencia social>, fillcolor="#8139e5"] ;
570 -> 571 ;
572 [label=<gini = 0.0<br/>samples = 6<br/>value = [0, 6, 0]<br/>class = sctrans>, fillcolor="#39e581"] ;
570 -> 572 ;
573 [label=<gini = 0.0<br/>samples = 1<br/>value = [0, 0, 1]<br/>class = instituto de previdencia e assistencia social>, fillcolor="#8139e5"] ;
555 -> 573 ;
574 [label=<gini = 0.0<br/>samples = 30<br/>value = [0, 30, 0]<br/>class = sctrans>, fillcolor="#39e581"] ;
554 -> 574 ;
575 [label=<ANO &le; 2019.5<br/>gini = 0.27<br/>samples = 112<br/>value = [0, 94, 18]<br/>class = sctrans>, fillcolor="#5fea99"] ;
461 -> 575 ;
576 [label=<VALOR_ARRECADADO &le; 561.65<br/>gini = 0.176<br/>samples = 72<br/>value = [0, 65, 7]<br/>class = sctrans>, fillcolor="#4ee88f"] ;
575 -> 576 ;
577 [label=<gini = 0.0<br/>samples = 1<br/>value = [0, 0, 1]<br/>class = instituto de previdencia e assistencia social>, fillcolor="#8139e5"] ;
576 -> 577 ;
578 [label=<VALOR_ARRECADADO &le; 636.66<br/>gini = 0.155<br/>samples = 71<br/>value = [0, 65, 6]<br/>class = sctrans>, fillcolor="#4be78d"] ;
576 -> 578 ;
579 [label=<VALOR_ARRECADADO &le; 636.41<br/>gini = 0.245<br/>samples = 42<br/>value = [0, 36, 6]<br/>class = sctrans>, fillcolor="#5ae996"] ;
578 -> 579 ;
580 [label=<VALOR_ARRECADADO &le; 582.035<br/>gini = 0.214<br/>samples = 41<br/>value = [0, 36, 5]<br/>class = sctrans>, fillcolor="#54e992"] ;
579 -> 580 ;
581 [label=<gini = 0.0<br/>samples = 12<br/>value = [0, 12, 0]<br/>class = sctrans>, fillcolor="#39e581"] ;
580 -> 581 ;
582 [label=<VALOR_ARRECADADO &le; 586.12<br/>gini = 0.285<br/>samples = 29<br/>value = [0, 24, 5]<br/>class = sctrans>, fillcolor="#62ea9b"] ;
580 -> 582 ;
583 [label=<gini = 0.0<br/>samples = 2<br/>value = [0, 0, 2]<br/>class = instituto de previdencia e assistencia social>, fillcolor="#8139e5"] ;
582 -> 583 ;
584 [label=<ANO &le; 2016.5<br/>gini = 0.198<br/>samples = 27<br/>value = [0, 24, 3]<br/>class = sctrans>, fillcolor="#52e891"] ;
582 -> 584 ;
585 [label=<gini = 0.0<br/>samples = 15<br/>value = [0, 15, 0]<br/>class = sctrans>, fillcolor="#39e581"] ;
584 -> 585 ;
586 [label=<VALOR_ARRECADADO &le; 614.065<br/>gini = 0.375<br/>samples = 12<br/>value = [0, 9, 3]<br/>class = sctrans>, fillcolor="#7beeab"] ;
584 -> 586 ;
587 [label=<VALOR_ARRECADADO &le; 598.37<br/>gini = 0.198<br/>samples = 9<br/>value = [0, 8, 1]<br/>class = sctrans>, fillcolor="#52e891"] ;
586 -> 587 ;
588 [label=<gini = 0.0<br/>samples = 5<br/>value = [0, 5, 0]<br/>class = sctrans>, fillcolor="#39e581"] ;
587 -> 588 ;
589 [label=<VALOR_ARRECADADO &le; 600.785<br/>gini = 0.375<br/>samples = 4<br/>value = [0, 3, 1]<br/>class = sctrans>, fillcolor="#7beeab"] ;
587 -> 589 ;
590 [label=<gini = 0.0<br/>samples = 1<br/>value = [0, 0, 1]<br/>class = instituto de previdencia e assistencia social>, fillcolor="#8139e5"] ;
589 -> 590 ;
591 [label=<gini = 0.0<br/>samples = 3<br/>value = [0, 3, 0]<br/>class = sctrans>, fillcolor="#39e581"] ;
589 -> 591 ;
592 [label=<VALOR_ARRECADADO &le; 618.705<br/>gini = 0.444<br/>samples = 3<br/>value = [0, 1, 2]<br/>class = instituto de previdencia e assistencia social>, fillcolor="#c09cf2"] ;
586 -> 592 ;
593 [label=<gini = 0.0<br/>samples = 1<br/>value = [0, 0, 1]<br/>class = instituto de previdencia e assistencia social>, fillcolor="#8139e5"] ;
592 -> 593 ;
594 [label=<VALOR_ARRECADADO &le; 621.585<br/>gini = 0.5<br/>samples = 2<br/>value = [0, 1, 1]<br/>class = sctrans>, fillcolor="#ffffff"] ;
592 -> 594 ;
595 [label=<gini = 0.0<br/>samples = 1<br/>value = [0, 1, 0]<br/>class = sctrans>, fillcolor="#39e581"] ;
594 -> 595 ;
596 [label=<gini = 0.0<br/>samples = 1<br/>value = [0, 0, 1]<br/>class = instituto de previdencia e assistencia social>, fillcolor="#8139e5"] ;
594 -> 596 ;
597 [label=<gini = 0.0<br/>samples = 1<br/>value = [0, 0, 1]<br/>class = instituto de previdencia e assistencia social>, fillcolor="#8139e5"] ;
579 -> 597 ;
598 [label=<gini = 0.0<br/>samples = 29<br/>value = [0, 29, 0]<br/>class = sctrans>, fillcolor="#39e581"] ;
578 -> 598 ;
599 [label=<VALOR_ARRECADADO &le; 649.3<br/>gini = 0.399<br/>samples = 40<br/>value = [0, 29, 11]<br/>class = sctrans>, fillcolor="#84efb1"] ;
575 -> 599 ;
600 [label=<VALOR_ARRECADADO &le; 573.595<br/>gini = 0.302<br/>samples = 27<br/>value = [0, 22, 5]<br/>class = sctrans>, fillcolor="#66eb9e"] ;
599 -> 600 ;
601 [label=<ANO &le; 2021.5<br/>gini = 0.5<br/>samples = 4<br/>value = [0, 2, 2]<br/>class = sctrans>, fillcolor="#ffffff"] ;
600 -> 601 ;
602 [label=<gini = 0.0<br/>samples = 1<br/>value = [0, 1, 0]<br/>class = sctrans>, fillcolor="#39e581"] ;
601 -> 602 ;
603 [label=<VALOR_ARRECADADO &le; 561.815<br/>gini = 0.444<br/>samples = 3<br/>value = [0, 1, 2]<br/>class = instituto de previdencia e assistencia social>, fillcolor="#c09cf2"] ;
601 -> 603 ;
604 [label=<gini = 0.0<br/>samples = 1<br/>value = [0, 0, 1]<br/>class = instituto de previdencia e assistencia social>, fillcolor="#8139e5"] ;
603 -> 604 ;
605 [label=<VALOR_ARRECADADO &le; 565.415<br/>gini = 0.5<br/>samples = 2<br/>value = [0, 1, 1]<br/>class = sctrans>, fillcolor="#ffffff"] ;
603 -> 605 ;
606 [label=<gini = 0.0<br/>samples = 1<br/>value = [0, 1, 0]<br/>class = sctrans>, fillcolor="#39e581"] ;
605 -> 606 ;
607 [label=<gini = 0.0<br/>samples = 1<br/>value = [0, 0, 1]<br/>class = instituto de previdencia e assistencia social>, fillcolor="#8139e5"] ;
605 -> 607 ;
608 [label=<VALOR_ARRECADADO &le; 604.59<br/>gini = 0.227<br/>samples = 23<br/>value = [0, 20, 3]<br/>class = sctrans>, fillcolor="#57e994"] ;
600 -> 608 ;
609 [label=<VALOR_ARRECADADO &le; 593.82<br/>gini = 0.346<br/>samples = 9<br/>value = [0, 7, 2]<br/>class = sctrans>, fillcolor="#72eca5"] ;
608 -> 609 ;
610 [label=<gini = 0.0<br/>samples = 4<br/>value = [0, 4, 0]<br/>class = sctrans>, fillcolor="#39e581"] ;
609 -> 610 ;
611 [label=<VALOR_ARRECADADO &le; 603.625<br/>gini = 0.48<br/>samples = 5<br/>value = [0, 3, 2]<br/>class = sctrans>, fillcolor="#bdf6d5"] ;
609 -> 611 ;
612 [label=<gini = 0.0<br/>samples = 1<br/>value = [0, 0, 1]<br/>class = instituto de previdencia e assistencia social>, fillcolor="#8139e5"] ;
611 -> 612 ;
613 [label=<VALOR_ARRECADADO &le; 604.15<br/>gini = 0.375<br/>samples = 4<br/>value = [0, 3, 1]<br/>class = sctrans>, fillcolor="#7beeab"] ;
611 -> 613 ;
614 [label=<gini = 0.0<br/>samples = 2<br/>value = [0, 2, 0]<br/>class = sctrans>, fillcolor="#39e581"] ;
613 -> 614 ;
615 [label=<gini = 0.5<br/>samples = 2<br/>value = [0, 1, 1]<br/>class = sctrans>, fillcolor="#ffffff"] ;
613 -> 615 ;
616 [label=<VALOR_ARRECADADO &le; 637.785<br/>gini = 0.133<br/>samples = 14<br/>value = [0, 13, 1]<br/>class = sctrans>, fillcolor="#48e78b"] ;
608 -> 616 ;
617 [label=<gini = 0.0<br/>samples = 8<br/>value = [0, 8, 0]<br/>class = sctrans>, fillcolor="#39e581"] ;
616 -> 617 ;
618 [label=<VALOR_ARRECADADO &le; 638.16<br/>gini = 0.278<br/>samples = 6<br/>value = [0, 5, 1]<br/>class = sctrans>, fillcolor="#61ea9a"] ;
616 -> 618 ;
619 [label=<gini = 0.0<br/>samples = 1<br/>value = [0, 0, 1]<br/>class = instituto de previdencia e assistencia social>, fillcolor="#8139e5"] ;
618 -> 619 ;
620 [label=<gini = 0.0<br/>samples = 5<br/>value = [0, 5, 0]<br/>class = sctrans>, fillcolor="#39e581"] ;
618 -> 620 ;
621 [label=<VALOR_ARRECADADO &le; 653.885<br/>gini = 0.497<br/>samples = 13<br/>value = [0, 7, 6]<br/>class = sctrans>, fillcolor="#e3fbed"] ;
599 -> 621 ;
622 [label=<gini = 0.0<br/>samples = 2<br/>value = [0, 0, 2]<br/>class = instituto de previdencia e assistencia social>, fillcolor="#8139e5"] ;
621 -> 622 ;
623 [label=<VALOR_ARRECADADO &le; 672.125<br/>gini = 0.463<br/>samples = 11<br/>value = [0, 7, 4]<br/>class = sctrans>, fillcolor="#aaf4c9"] ;
621 -> 623 ;
624 [label=<VALOR_ARRECADADO &le; 663.63<br/>gini = 0.42<br/>samples = 10<br/>value = [0, 7, 3]<br/>class = sctrans>, fillcolor="#8ef0b7"] ;
623 -> 624 ;
625 [label=<VALOR_ARRECADADO &le; 659.275<br/>gini = 0.5<br/>samples = 6<br/>value = [0, 3, 3]<br/>class = sctrans>, fillcolor="#ffffff"] ;
624 -> 625 ;
626 [label=<gini = 0.0<br/>samples = 2<br/>value = [0, 2, 0]<br/>class = sctrans>, fillcolor="#39e581"] ;
625 -> 626 ;
627 [label=<ANO &le; 2020.5<br/>gini = 0.375<br/>samples = 4<br/>value = [0, 1, 3]<br/>class = instituto de previdencia e assistencia social>, fillcolor="#ab7bee"] ;
625 -> 627 ;
628 [label=<gini = 0.0<br/>samples = 2<br/>value = [0, 0, 2]<br/>class = instituto de previdencia e assistencia social>, fillcolor="#8139e5"] ;
627 -> 628 ;
629 [label=<VALOR_ARRECADADO &le; 662.41<br/>gini = 0.5<br/>samples = 2<br/>value = [0, 1, 1]<br/>class = sctrans>, fillcolor="#ffffff"] ;
627 -> 629 ;
630 [label=<gini = 0.0<br/>samples = 1<br/>value = [0, 1, 0]<br/>class = sctrans>, fillcolor="#39e581"] ;
629 -> 630 ;
631 [label=<gini = 0.0<br/>samples = 1<br/>value = [0, 0, 1]<br/>class = instituto de previdencia e assistencia social>, fillcolor="#8139e5"] ;
629 -> 631 ;
632 [label=<gini = 0.0<br/>samples = 4<br/>value = [0, 4, 0]<br/>class = sctrans>, fillcolor="#39e581"] ;
624 -> 632 ;
633 [label=<gini = 0.0<br/>samples = 1<br/>value = [0, 0, 1]<br/>class = instituto de previdencia e assistencia social>, fillcolor="#8139e5"] ;
623 -> 633 ;
634 [label=<gini = 0.0<br/>samples = 2<br/>value = [0, 0, 2]<br/>class = instituto de previdencia e assistencia social>, fillcolor="#8139e5"] ;
376 -> 634 ;
635 [label=<ANO &le; 2016.5<br/>gini = 0.196<br/>samples = 691<br/>value = [21, 617, 53]<br/>class = sctrans>, fillcolor="#50e890"] ;
375 -> 635 ;
636 [label=<VALOR_ARRECADADO &le; 1336.755<br/>gini = 0.114<br/>samples = 201<br/>value = [5, 189, 7]<br/>class = sctrans>, fillcolor="#45e789"] ;
635 -> 636 ;
637 [label=<VALOR_ARRECADADO &le; 1314.635<br/>gini = 0.162<br/>samples = 91<br/>value = [1, 83, 7]<br/>class = sctrans>, fillcolor="#4ce78d"] ;
636 -> 637 ;
638 [label=<ANO &le; 2014.5<br/>gini = 0.145<br/>samples = 90<br/>value = [1, 83, 6]<br/>class = sctrans>, fillcolor="#49e78c"] ;
637 -> 638 ;
639 [label=<VALOR_ARRECADADO &le; 1110.205<br/>gini = 0.287<br/>samples = 30<br/>value = [1, 25, 4]<br/>class = sctrans>, fillcolor="#5fea99"] ;
638 -> 639 ;
640 [label=<VALOR_ARRECADADO &le; 1101.5<br/>gini = 0.344<br/>samples = 24<br/>value = [1, 19, 4]<br/>class = sctrans>, fillcolor="#6aeca0"] ;
639 -> 640 ;
641 [label=<VALOR_ARRECADADO &le; 952.55<br/>gini = 0.299<br/>samples = 23<br/>value = [1, 19, 3]<br/>class = sctrans>, fillcolor="#61ea9a"] ;
640 -> 641 ;
642 [label=<VALOR_ARRECADADO &le; 935.805<br/>gini = 0.364<br/>samples = 18<br/>value = [1, 14, 3]<br/>class = sctrans>, fillcolor="#6eeca3"] ;
641 -> 642 ;
643 [label=<VALOR_ARRECADADO &le; 863.52<br/>gini = 0.304<br/>samples = 17<br/>value = [1, 14, 2]<br/>class = sctrans>, fillcolor="#61ea9a"] ;
642 -> 643 ;
644 [label=<VALOR_ARRECADADO &le; 745.24<br/>gini = 0.153<br/>samples = 12<br/>value = [0, 11, 1]<br/>class = sctrans>, fillcolor="#4be78c"] ;
643 -> 644 ;
645 [label=<VALOR_ARRECADADO &le; 721.485<br/>gini = 0.444<br/>samples = 3<br/>value = [0, 2, 1]<br/>class = sctrans>, fillcolor="#9cf2c0"] ;
644 -> 645 ;
646 [label=<gini = 0.0<br/>samples = 2<br/>value = [0, 2, 0]<br/>class = sctrans>, fillcolor="#39e581"] ;
645 -> 646 ;
647 [label=<gini = 0.0<br/>samples = 1<br/>value = [0, 0, 1]<br/>class = instituto de previdencia e assistencia social>, fillcolor="#8139e5"] ;
645 -> 647 ;
648 [label=<gini = 0.0<br/>samples = 9<br/>value = [0, 9, 0]<br/>class = sctrans>, fillcolor="#39e581"] ;
644 -> 648 ;
649 [label=<VALOR_ARRECADADO &le; 868.725<br/>gini = 0.56<br/>samples = 5<br/>value = [1, 3, 1]<br/>class = sctrans>, fillcolor="#9cf2c0"] ;
643 -> 649 ;
650 [label=<gini = 0.0<br/>samples = 1<br/>value = [0, 0, 1]<br/>class = instituto de previdencia e assistencia social>, fillcolor="#8139e5"] ;
649 -> 650 ;
651 [label=<VALOR_ARRECADADO &le; 900.68<br/>gini = 0.375<br/>samples = 4<br/>value = [1, 3, 0]<br/>class = sctrans>, fillcolor="#7beeab"] ;
649 -> 651 ;
652 [label=<VALOR_ARRECADADO &le; 875.81<br/>gini = 0.5<br/>samples = 2<br/>value = [1, 1, 0]<br/>class = prefeitura municipal>, fillcolor="#ffffff"] ;
651 -> 652 ;
653 [label=<gini = 0.0<br/>samples = 1<br/>value = [0, 1, 0]<br/>class = sctrans>, fillcolor="#39e581"] ;
652 -> 653 ;
654 [label=<gini = 0.0<br/>samples = 1<br/>value = [1, 0, 0]<br/>class = prefeitura municipal>, fillcolor="#e58139"] ;
652 -> 654 ;
655 [label=<gini = 0.0<br/>samples = 2<br/>value = [0, 2, 0]<br/>class = sctrans>, fillcolor="#39e581"] ;
651 -> 655 ;
656 [label=<gini = 0.0<br/>samples = 1<br/>value = [0, 0, 1]<br/>class = instituto de previdencia e assistencia social>, fillcolor="#8139e5"] ;
642 -> 656 ;
657 [label=<gini = 0.0<br/>samples = 5<br/>value = [0, 5, 0]<br/>class = sctrans>, fillcolor="#39e581"] ;
641 -> 657 ;
658 [label=<gini = 0.0<br/>samples = 1<br/>value = [0, 0, 1]<br/>class = instituto de previdencia e assistencia social>, fillcolor="#8139e5"] ;
640 -> 658 ;
659 [label=<gini = 0.0<br/>samples = 6<br/>value = [0, 6, 0]<br/>class = sctrans>, fillcolor="#39e581"] ;
639 -> 659 ;
660 [label=<VALOR_ARRECADADO &le; 721.885<br/>gini = 0.064<br/>samples = 60<br/>value = [0, 58, 2]<br/>class = sctrans>, fillcolor="#40e685"] ;
638 -> 660 ;
661 [label=<VALOR_ARRECADADO &le; 711.605<br/>gini = 0.219<br/>samples = 8<br/>value = [0, 7, 1]<br/>class = sctrans>, fillcolor="#55e993"] ;
660 -> 661 ;
662 [label=<gini = 0.0<br/>samples = 7<br/>value = [0, 7, 0]<br/>class = sctrans>, fillcolor="#39e581"] ;
661 -> 662 ;
663 [label=<gini = 0.0<br/>samples = 1<br/>value = [0, 0, 1]<br/>class = instituto de previdencia e assistencia social>, fillcolor="#8139e5"] ;
661 -> 663 ;
664 [label=<VALOR_ARRECADADO &le; 1087.79<br/>gini = 0.038<br/>samples = 52<br/>value = [0, 51, 1]<br/>class = sctrans>, fillcolor="#3de683"] ;
660 -> 664 ;
665 [label=<gini = 0.0<br/>samples = 38<br/>value = [0, 38, 0]<br/>class = sctrans>, fillcolor="#39e581"] ;
664 -> 665 ;
666 [label=<VALOR_ARRECADADO &le; 1094.59<br/>gini = 0.133<br/>samples = 14<br/>value = [0, 13, 1]<br/>class = sctrans>, fillcolor="#48e78b"] ;
664 -> 666 ;
667 [label=<gini = 0.0<br/>samples = 1<br/>value = [0, 0, 1]<br/>class = instituto de previdencia e assistencia social>, fillcolor="#8139e5"] ;
666 -> 667 ;
668 [label=<gini = 0.0<br/>samples = 13<br/>value = [0, 13, 0]<br/>class = sctrans>, fillcolor="#39e581"] ;
666 -> 668 ;
669 [label=<gini = 0.0<br/>samples = 1<br/>value = [0, 0, 1]<br/>class = instituto de previdencia e assistencia social>, fillcolor="#8139e5"] ;
637 -> 669 ;
670 [label=<VALOR_ARRECADADO &le; 2722.505<br/>gini = 0.07<br/>samples = 110<br/>value = [4, 106, 0]<br/>class = sctrans>, fillcolor="#40e686"] ;
636 -> 670 ;
671 [label=<VALOR_ARRECADADO &le; 1618.15<br/>gini = 0.027<br/>samples = 73<br/>value = [1, 72, 0]<br/>class = sctrans>, fillcolor="#3ce583"] ;
670 -> 671 ;
672 [label=<VALOR_ARRECADADO &le; 1611.435<br/>gini = 0.083<br/>samples = 23<br/>value = [1, 22, 0]<br/>class = sctrans>, fillcolor="#42e687"] ;
671 -> 672 ;
673 [label=<gini = 0.0<br/>samples = 22<br/>value = [0, 22, 0]<br/>class = sctrans>, fillcolor="#39e581"] ;
672 -> 673 ;
674 [label=<gini = 0.0<br/>samples = 1<br/>value = [1, 0, 0]<br/>class = prefeitura municipal>, fillcolor="#e58139"] ;
672 -> 674 ;
675 [label=<gini = 0.0<br/>samples = 50<br/>value = [0, 50, 0]<br/>class = sctrans>, fillcolor="#39e581"] ;
671 -> 675 ;
676 [label=<VALOR_ARRECADADO &le; 2739.94<br/>gini = 0.149<br/>samples = 37<br/>value = [3, 34, 0]<br/>class = sctrans>, fillcolor="#4ae78c"] ;
670 -> 676 ;
677 [label=<gini = 0.0<br/>samples = 1<br/>value = [1, 0, 0]<br/>class = prefeitura municipal>, fillcolor="#e58139"] ;
676 -> 677 ;
678 [label=<ANO &le; 2014.5<br/>gini = 0.105<br/>samples = 36<br/>value = [2, 34, 0]<br/>class = sctrans>, fillcolor="#45e788"] ;
676 -> 678 ;
679 [label=<gini = 0.0<br/>samples = 15<br/>value = [0, 15, 0]<br/>class = sctrans>, fillcolor="#39e581"] ;
678 -> 679 ;
680 [label=<VALOR_ARRECADADO &le; 3232.7<br/>gini = 0.172<br/>samples = 21<br/>value = [2, 19, 0]<br/>class = sctrans>, fillcolor="#4ee88e"] ;
678 -> 680 ;
681 [label=<gini = 0.0<br/>samples = 9<br/>value = [0, 9, 0]<br/>class = sctrans>, fillcolor="#39e581"] ;
680 -> 681 ;
682 [label=<VALOR_ARRECADADO &le; 3263.315<br/>gini = 0.278<br/>samples = 12<br/>value = [2, 10, 0]<br/>class = sctrans>, fillcolor="#61ea9a"] ;
680 -> 682 ;
683 [label=<gini = 0.0<br/>samples = 1<br/>value = [1, 0, 0]<br/>class = prefeitura municipal>, fillcolor="#e58139"] ;
682 -> 683 ;
684 [label=<ANO &le; 2015.5<br/>gini = 0.165<br/>samples = 11<br/>value = [1, 10, 0]<br/>class = sctrans>, fillcolor="#4de88e"] ;
682 -> 684 ;
685 [label=<gini = 0.0<br/>samples = 7<br/>value = [0, 7, 0]<br/>class = sctrans>, fillcolor="#39e581"] ;
684 -> 685 ;
686 [label=<VALOR_ARRECADADO &le; 3526.75<br/>gini = 0.375<br/>samples = 4<br/>value = [1, 3, 0]<br/>class = sctrans>, fillcolor="#7beeab"] ;
684 -> 686 ;
687 [label=<VALOR_ARRECADADO &le; 3384.945<br/>gini = 0.5<br/>samples = 2<br/>value = [1, 1, 0]<br/>class = prefeitura municipal>, fillcolor="#ffffff"] ;
686 -> 687 ;
688 [label=<gini = 0.0<br/>samples = 1<br/>value = [0, 1, 0]<br/>class = sctrans>, fillcolor="#39e581"] ;
687 -> 688 ;
689 [label=<gini = 0.0<br/>samples = 1<br/>value = [1, 0, 0]<br/>class = prefeitura municipal>, fillcolor="#e58139"] ;
687 -> 689 ;
690 [label=<gini = 0.0<br/>samples = 2<br/>value = [0, 2, 0]<br/>class = sctrans>, fillcolor="#39e581"] ;
686 -> 690 ;
691 [label=<VALOR_ARRECADADO &le; 3250.3<br/>gini = 0.227<br/>samples = 490<br/>value = [16, 428, 46]<br/>class = sctrans>, fillcolor="#55e993"] ;
635 -> 691 ;
